int mid_weight[262144] = {-1143943286, 1019267544, 992029237, 1013061321, 993883499, -1160031482, 1011426338, -1130823066, 1001981379, -1124116645, -1171973687, -1154574556, -1131290004, 1017706537, 1003904687, 997850930, 1017701986, -1125843558, 981276019, 1006579346, 1001968104, -1156387420, 1007292280, -1161730225, -1129213363, 1004155610, -1157594864, 992510473, -1131643914, 1018460974, -1148793542, -1128234914, 1015096896, -1166048903, -1126146202, 1011560504, -1127669939, 1015656845, -1128901278, -1138294296, -1138810818, -1144228152, 999134611, -1158124909, -1138168700, -1164627463, 1009529058, 1014522474, 1012126019, 1015841408, 995386557, 1001783967, 1021092165, 1009510207, -1126131074, 1014363873, -1138907583, -1137260216, 990449674, 984524237, 1020711702, -1141044544, -1131078941, 1006465001, -1128176747, -1134724584, 994210372, -1134614424, -1144971890, -1136777784, -1163113320, -1138626694, -1144786195, 1006624641, 1000753953, 1003247824, -1139782580, 1014452376, 1019539685, 1014703476, -1130694627, 1005933413, 1020057269, -1130558173, -1127157581, -1132427963, -1133299262, -1126876575, -1167022259, 963985019, -1134355448, 1005030993, 982790626, 999342393, 990633941, -1136100674, 977773744, -1125702774, -1139290202, -1141259533, -1131425477, -1165473382, -1143924723, 998989399, 1008678131, 1005988208, -1150802549, -1132192296, -1139855882, 1000016200, -1129033695, -1140592623, 956618997, -1143806274, 1007671426, 1018712286, -1136162294, 1012919384, 999219228, -1160464407, -1134280780, 1009236079, -1140224242, -1139779332, -1167689882, -1170319222, -1147295947, 1016051864, -1131821465, -1131503899, -1134543885, 1005580496, -1125598682, -1154005634, -1136999179, -1139253022, -1154697132, -1153539311, -1128661691, -1140264009, -1132614950, -1122189755, -1136171160, -1130674239, -1154839506, -1142437392, -1148120180, -1157694258, 1012698900, 1006795249, -1148352303, 1007211911, -1137526310, -1127158272, 996302552, 1015084581, 990962876, -1138381310, -1127903817, -1151734377, -1154336756, 1022158610, 1007979655, -1128919030, -1172515873, 1004225550, -1135089591, 1008799139, -1136926996, -1153377594, -1136788814, 1009309523, 1012535006, -1119708004, -1140239199, 995748422, -1133553301, 1023856805, -1130723969, -1125076694, -1131497674, 953483595, -1143260688, 1000025023, -1161353284, 1010703661, -1143801154, -1138389380, 1003005855, 1011241506, -1152742650, 1019122605, 990780366, -1139723702, -1131349280, 991436832, 998825000, 1009980053, -1132585045, -1149856145, -1167255309, -1160768671, -1180562769, -1135546497, -1132498609, -1151427749, -1154937235, 1015856597, -1148186857, 990079943, -1132408280, -1127646636, -1125156015, 1006049502, 1009734642, -1135809734, -1128959350, 1019220973, -1176262927, 1010342437, -1148947273, -1153710983, 1016239544, -1129181320, -1138325344, -1149761543, 1009670503, 1016527978, -1152104430, -1140396443, -1124729173, -1152311917, 997077612, 999020555, -1129021114, -1123095083, 1007038389, -1139924746, -1138823761, -1138106885, -1154148467, -1139634773, -1171357498, 1015729748, -1140459548, 963828605, -1155236221, -1121591459, -1137720853, -1149366188, -1149080712, -1140391849, -1141730471, 998677236, 992150464, -1137438946, -1140299612, 1011765121, -1140403387, 1001761716, 992767799, -1151050458, 1015868643, -1152786195, -1146881192, -1140023995, 1007326021, 1001669510, -1137804058, 1007344082, -1145079973, 1000746153, -1153798391, 1016261200, -1168447886, -1134215285, 1004924558, 1012185186, 1000133026, 974994926, 1013425785, -1127044749, 999248438, -1139735841, -1130969934, 1032332793, 1008940952, -1157456681, -1128595206, -1140802305, -1121362397, 1019151044, -1146130770, 993212038, -1137968027, -1165333628, 1018431447, -1170561473, 991706034, 1012332721, -1138490983, 1007636375, 1008192582, -1131334526, -1141997929, -1123531609, -1132391139, 1018323579, -1154551368, -1145844971, 1016969037, 962687799, 1014039501, -1145617551, 985647219, 998371357, 982121140, 1005808686, 1023551798, -1126872754, -1130432969, 999788658, -1164839228, -1147746091, 1015890738, 1008524000, -1135496515, -1145310410, 1009307535, 978658171, 1021563620, -1136617098, 990626181, 1008791009, 1010835137, 991551458, -1131582054, -1131751407, 1008966374, -1141101818, -1121617789, -1143842807, 995079993, -1140930547, 998253157, 1013471045, -1123671240, -1130498886, -1133218047, -1141481685, 1011085818, 1020261696, -1169424937, 1008021345, -1132684571, -1146422058, 1007560254, -1126646677, 990079369, 1006629822, -1129826768, 999240512, 1020872457, -1162669170, -1132147183, 1022012284, 1017695352, -1136052246, -1146506977, -1138800181, 1005689718, -1136914401, -1129106661, -1146727071, 975214886, 1000666390, 1017770774, 1022696186, -1132258213, 995331261, -1205267190, -1149067408, 1009188152, -1143960407, -1133311507, 995188653, 1023665647, 1018196466, -1148039432, 1002025987, 987735608, -1131868027, -1162059036, -1128197428, 1013231227, 1018554478, -1138430758, -1131499680, -1146239774, -1151287294, -1148876520, 1011391371, 1002352225, 966044305, -1147562310, 1013892707, 1008235955, 1016316938, 1004452862, -1137401507, -1154987755, 1008277302, -1129281095, 1007117043, -1137407879, -1141545405, -1132128226, -1143118644, -1161561171, -1138011642, 1015137163, 1000015660, -1142627381, 1016185337, -1151743660, -1140822769, 1009211255, -1166466253, 1010445890, -1138012072, -1130993529, -1160259135, -1136232605, -1127093362, -1152957076, -1139134177, -1124539066, 1019152993, 1000964770, 1025909344, -1139349968, -1140914594, -1137392703, -1129350600, -1132888886, -1155577503, 1005377399, -1144758334, 1008891112, -1148184946, 1013640512, 1013665497, 1011586120, -1148024396, 1001129947, 1005595379, 1020578100, -1143226548, -1148168085, -1125880966, 992036813, -1137914803, -1139937573, -1138842189, 1010543919, 973759610, 979005865, -1164968663, -1165988477, 1013446738, 1005810618, -1139882085, 982633752, 1011668693, 1004891620, -1143977036, -1161525252, -1153436701, -1157157814, -1173296360, 1009827503, 1002568268, 1035615725, 1002598778, -1145970500, 1010031945, 1005313338, -1133274935, 1008357570, 1005356636, -1153224760, -1134395549, -1127140333, 1007503340, -1138885796, 995833428, -1136824927, -1153685836, -1144807353, 1011757577, -1161882384, 1004633256, 991383307, -1139073126, -1136620294, 990319127, 1025989125, 1008298953, -1133932970, 1009775389, -1141267094, 1012942584, -1138308874, -1138944398, -1173676266, -1148079619, -1144592628, -1141158391, -1143430122, -1128709373, 1018758846, -1154649186, 1016977230, 1006310239, 1018131903, 1017635324, 1014856406, -1115384510, -1122812508, 1008334583, -1132936730, 1011351091, -1135518969, 1024558837, -1145603724, 986673379, 1018859894, 1018234769, 1011613652, 1018729340, 1024995211, -1118869966, 1029292696, 991489273, 982240359, -1138831421, 1015080914, 1024987531, 1015137567, -1158718764, 1009114419, -1134853421, 992868190, -1129291455, -1148120032, -1164848807, -1138910267, 1008855932, 1023899439, 1004837766, 1012256119, 998854669, 1019574545, 988240520, -1140649147, -1153733198, -1130353623, -1130951648, 1020675084, 1025940922, 1015501480, 1012039027, -1134960441, 1004147670, 1017909822, -1141029283, 968760549, -1155053853, -1147523908, 1013645125, 1019394877, 1004967849, -1123464691, -1148342821, -1181072973, 1023638234, -1147369466, -1166403656, 1015420410, -1122944822, -1132709596, -1121996739, -1152804517, -1127411207, 988749208, 1026503897, -1132059493, -1158411231, -1142546984, -1155740034, 1013607018, -1129829110, 1004521988, -1126861930, -1135737033, 994503233, 968472777, 1000593220, -1148003327, 1013247988, -1152710312, -1127121927, 1024320579, -1145629073, -1131627691, -1133580027, -1160709094, 996472940, -1128290940, 1003403775, 1018512394, 1010864685, -1150513986, -1140784052, -1132412861, -1137338157, -1138256065, -1139957975, -1131650168, -1135836052, -1153111009, 995983912, 1008025210, -1141480747, 994519027, -1130634844, 1012128414, -1145547908, -1134912890, 1015967946, -1165724305, 990167492, -1130209086, 1012384194, 1014949558, -1147118338, 998664035, 989627273, -1152415202, 1016306180, -1158801428, -1175923088, 1015730824, -1133456546, 1015610360, -1129041876, -1130078170, -1134906592, -1148870366, -1131193403, 1018496352, -1151734328, -1134459087, -1158849637, 980975341, -1131015889, -1125263980, 1010728185, -1139788781, 1022823496, -1140504869, 1009772554, -1147875330, 1030116499, 1018141204, -1132343910, -1141136126, -1130489560, -1138690481, -1162387577, 1017889827, -1128257342, 1001378603, -1129291334, -1137215899, 1029079471, -1144488360, 1019472891, 987843973, -1128660941, -1139051485, 1011180371, 1019277031, 1018902197, -1148169616, -1142610673, -1138279547, 1005066038, -1133694296, -1153858827, 992731321, 1027119526, 1015024868, -1155299982, -1129320786, 1024985959, -1132415814, -1135247910, 984851707, -1123030441, 986371904, 1014998805, 1003648039, -1131975662, -1145971794, -1138366947, 1005427609, 1012846337, -1127197243, -1136240100, 967568495, 982481990, -1147147708, 948351842, -1131842387, 980735376, -1131575555, 1005518536, 1023706797, 1010334224, 962526310, 1002203481, -1144651508, 986245087, -1139294208, 1002161804, -1136914738, -1127682338, -1125282402, -1137023226, -1119272088, -1134846628, -1133952585, 949925400, 1009998748, -1136615931, 997448230, 1012511647, 1002834415, 1018106842, -1148423143, 1014172653, 1031314564, -1141190447, 1016324593, 1026106510, 1013492177, -1132054859, -1122389702, -1128110871, 1029215683, -1141362035, 1009720344, 1016667637, -1128972506, 1015106407, 1009026126, 988932330, -1136013439, 1002467962, 1017194195, 1009320846, 1021977114, 1009522409, 1023919543, -1130005800, -1139860117, 1001661840, -1139520051, 1023016232, -1168730587, -1131366234, -1129881275, -1142495057, -1127833084, -1144994682, 1016115068, -1123147566, -1125088072, 1019724433, -1126628993, 998302810, -1138805927, -1145012045, 994605602, 1021160097, 1015076844, 1025292115, -1132616351, 1004876924, 1008843652, 994818215, -1144011677, 1022988614, -1133500081, -1136037245, -1129598226, -1136971300, 1022815861, 1000516280, -1128953552, -1164678350, -1167657234, -1134493176, -1135893730, -1172664689, 1025672115, 1014263994, 1010645161, -1126137323, -1125218875, 1021099130, -1123110246, -1147260127, 1003807295, -1130339508, -1133476080, 989177825, -1161156272, 1024796884, -1133974547, 987721418, 1010395512, -1130149479, -1140168206, 1007643487, 1019878699, -1125573488, 1015134931, -1129460403, -1135962804, -1139895226, -1165167443, 1013973913, 974359962, -1123980875, -1135088018, -1152169522, 1004274930, 1020309893, 1002304593, -1123139109, 1022149583, 1019191728, 984094408, -1152321695, 973776864, -1145854828, 1008396903, -1133258834, -1170911486, -1123755584, 1024217393, -1140376486, -1138848995, -1147389351, -1138092714, 1015242529, -1124008442, 1025539094, -1132312775, 981501232, -1123513590, -1136784488, 1022384370, -1145566854, -1129217434, -1134629407, -1135562020, 982047114, -1161085294, 956646965, 1027512857, -1150672091, -1146383929, 1007875710, -1128032061, -1125322264, -1138128277, 1021103974, -1142504033, 1015331791, 1008347409, 1019467521, 1015202305, -1142486981, -1147313710, 1018936152, 1016175303, -1188553007, -1114517303, -1132051634, -1150803656, 1016654578, 1017016009, -1137218660, -1194057203, -1154318977, 1030111709, -1127132160, 995386220, -1140119807, -1147769404, -1145392692, -1139310251, 1016469835, -1157686770, -1125783752, 1022582143, 1010525460, 1010398862, -1128498128, 1023879503, 1002185826, -1140329663, -1127747373, 979630029, 1025537197, 1020960377, 1020749928, 1019311802, 1009004603, -1156811987, -1123190162, -1160561072, -1147444899, 1006658102, -1133652415, 1002216251, -1143567848, -1129883664, -1133002300, -1127495659, -1134805265, 977700324, -1128783458, 1005518662, 977850184, -1130945522, -1127248293, 1010254765, -1139401641, -1156862217, -1130216245, 994206691, -1170506713, 989365698, 1023830375, -1141625201, -1132419527, -1139962070, -1132309613, -1161059685, -1140306982, 1016448058, -1167994526, 985877629, -1128386916, 998180149, 1004621970, -1128078149, -1125056621, -1136523253, 1020080613, -1137263414, -1153645868, 1016752639, -1135399461, 1017646761, -1148158461, 1010130803, 1014800062, -1141551812, 1003991899, 1025498342, 924823743, 1019467137, -1135236923, 984312818, -1127972209, -1129062850, -1135222979, 1017863414, 992099779, -1136946330, -1131744745, -1137720978, -1126725652, -1131445662, -1126329685, -1147357486, -1138281835, -1147867603, -1149553689, -1132568548, 1005776884, 1016473663, -1148118496, 1021275289, -1168280649, -1124173268, -1134614357, 1008878873, -1129243444, 1025572452, -1131347655, -1134720018, -1155870322, 1014552340, -1132594599, -1126307018, -1142352797, 1015873905, -1152950239, -1121398847, 1022191162, -1132672688, -1134078283, 1022550601, 975981194, -1139635109, -1180981219, 1013552019, 990668230, -1126061173, -1134257157, 975929716, 1010139785, 996587308, -1133465517, 998899921, 971227703, -1128015871, -1163580124, 1003438922, -1137969902, -1145004015, 1016759835, 999313886, 1007169179, -1150139215, -1137650081, -1124065995, -1117057387, -1135716255, 1015708055, 999554030, -1138546852, -1145798322, 1002041191, -1140726973, 985099052, -1129713602, 1026686855, 1002008340, 1021339422, -1149265939, 1012068505, 1024065233, -1139612063, 1017073437, 996180158, 1011247522, 1015265542, 1018645834, 1029636726, 1026150262, -1125213592, 1010389370, 1010578364, 985416541, 1008341644, -1125444446, -1148209878, 1013568621, -1123547555, 1022126481, -1144905369, -1174014654, -1157711987, 1012251227, -1127866520, -1129457357, -1139684924, -1124249568, -1150064110, 983253949, 1001001734, 1013112377, -1139940880, 1015275086, -1118619495, -1146094363, -1126912834, 1010940358, 1025505734, 1016653293, -1123928785, -1141937332, -1137637926, -1138126371, -1134430257, 1009024532, -1133369477, -1130234622, 1002230262, 990933873, -1141260308, 1003475233, -1123556715, 1004148345, -1152789643, -1131667817, -1127132740, 1013070245, -1116107675, 1017171129, 1017291299, -1143557863, 1014017383, -1134676112, 1013627964, 989264145, -1147628878, -1120876399, -1131480602, -1149543814, -1134192631, 1034277382, 1008307494, 1018392221, 1012961355, 1005877008, -1124220192, 1016567098, 1015078477, 999417087, 1011688547, 1011584868, 997597728, -1126376469, 1006791160, -1124206202, -1137094506, -1156172978, 1010778386, 1016006885, 1004084485, 1011391087, 1005440888, 992607037, -1128236407, 1018723182, -1135524645, 1013680564, 1009708239, 1026291620, -1149509024, -1129835007, -1117896499, -1158386089, -1124305304, -1131945339, 1018284264, 1011967481, -1136324415, 1023666961, 1024194774, 1018385431, -1143125708, -1129066470, -1164434813, 1030864025, 1008190711, -1147510894, 1007116585, 1015687762, -1156563636, -1121702494, -1135549625, 1017495019, -1132572421, -1150803875, 1008754881, 965648961, -1141832853, 1009794939, 999753622, 1009294720, 1007548425, -1153066837, -1125539157, 1008562574, 1024782799, -1153456031, 1023510047, 997937187, -1147056264, 1008669019, 964912687, -1136207612, 1015250222, 997436297, -1145583644, -1137951362, 1003091056, 1008325197, -1126409452, -1136993596, 1016578015, -1126814327, 1009888016, -1140895157, 1020746105, -1141839082, 1003441850, -1126300337, 993759063, -1122318492, -1177194971, 962473044, 992931728, 1015678859, 1012946951, 1029595508, 1003578158, 1002843946, 1024216348, -1134023295, 1031978526, -1143485524, -1139390881, -1135815041, -1144117778, 1006097284, -1135744685, 1007711174, -1131683594, 1022842645, -1145131353, -1129372413, -1147088872, 1018403658, 1004152362, -1130772351, 1025543753, -1145710397, -1150641924, -1123303544, 1005792669, 1015973333, -1130868478, -1149563690, 993820737, -1142068207, -1143830483, 1012421407, 1025219030, 1005438884, -1132570399, -1135534894, -1139233154, 1008055204, 1009531756, 1001722174, 999648362, -1119309481, 1014085943, 1001383465, 1018329405, -1132184923, -1131402958, 1009114979, -1125837870, -1132354776, -1136861681, -1155703505, 1010377950, -1150903309, 1007300373, 999448337, -1138075200, -1130836844, 1010966594, 1012785195, -1153809969, 1024497955, 1017581353, 1009351604, 1004279552, 1007050432, 1019641914, 1026993158, -1129906829, -1127481052, 1016641711, -1125671707, -1165026202, -1151908579, 1014073831, 1015961124, -1147276940, -1164074551, -1129835439, -1151798710, 988729479, 997411413, 1027000311, -1136645593, -1132991082, -1139965910, -1147158895, 1017721703, -1149341239, 1011390906, -1150224309, 992589752, -1155673779, -1123937171, 1023837550, 1011552504, -1134383199, 977283427, 1041749728, -1136398720, -1124031637, 982397664, -1150059440, 1018062113, -1139026871, -1131390202, -1131077448, -1140506678, -1172903196, -1138153268, 1012094201, -1152524646, 1003421713, -1131368575, 993040646, -1134737450, -1122320149, 1024717174, 998047556, -1168001757, -1137484918, 1010810656, -1121616868, -1123510462, 1023501297, 1012669170, -1140007794, 1015285388, -1127645359, 1017469343, 994030115, -1136433749, 969640809, 1022228815, 1005468711, -1140249285, -1112341892, 1023871856, 1019233152, -1136110185, 996760670, 984917983, -1135601033, 1024104789, 993389824, -1172192535, -1139296857, -1125782945, 1015802329, -1116666296, 1008527821, -1146806223, -1143644488, -1140753035, 977343988, 1014147788, 991072605, 1011801179, 1016078631, -1139813359, -1151828474, 1020259005, -1198428691, 1013194278, 1011326267, -1140036106, -1147833331, -1129102443, 1009642719, 1007159866, -1131601730, -1140596057, 1011955998, -1132971423, -1131281679, 988161256, 1021939946, 1013812823, -1106624619, -1133804459, -1146728799, -1125260305, -1123680407, 1007202495, -1130730294, 1016108631, -1140101173, 1022287293, -1162614942, 998134219, 996642416, -1120491865, -1135348842, 1026611471, -1121748702, 1005985579, -1141235052, 1028359615, -1128277769, -1161341447, -1115646379, 1014146808, 1024538312, 992533588, 1026380688, 1033726842, -1132223295, 1012360146, 1019187006, 1003573634, -1148730148, -1137548644, 989603520, -1135451660, 1000767871, 1018578220, -1145943970, 1006816923, 1011669804, -1142893998, -1130839135, 1018689852, -1124036817, 1014742732, 1012293013, -1166741030, -1165150383, -1133046870, 1015849138, -1118568017, 1011033315, -1133542401, -1129913335, 1033519939, -1148431867, -1138381176, 1007576499, -1127267720, -1137638383, 1009197866, -1134143808, 999829950, 1008218523, -1150152800, 1024836118, 1020404279, -1107945423, -1123361729, 1014278676, -1120341241, -1130957874, 1014391834, 1008656670, -1134755737, -1142917381, 1016421293, -1151256034, -1142588059, -1159147924, -1138163267, -1126132684, -1145597258, -1135798169, -1147525313, -1178188707, -1130185688, -1144612258, 990103280, -1130788072, -1132205709, -1147264767, -1129218687, -1137619696, 1031034565, -1156733509, -1134481112, -1127108504, -1146213786, -1153532228, 999150333, -1161495454, 997889332, 1005149032, -1103004636, -1140386973, 1019588140, 1021369576, 1010956725, -1135119517, 1011485529, -1140551617, -1147073926, 1016053886, 1005139274, -1134868524, 1020436543, -1126644263, -1128914685, -1130951037, -1155498779, -1130472612, -1130029958, -1139205618, 1032823631, 1018310420, -1129301550, 1007034222, -1138283507, -1130677898, -1130590982, -1136590285, -1162525182, -1175890960, -1128849159, -1125067909, 1017317381, 978859644, 1026994434, -1120061854, 1019020764, 1018662750, 1020289347, -1137359500, 1015961672, -1122855620, -1123470092, -1136825972, 1023142997, 1018993541, -1157046215, 1006379757, -1118305221, 1016122485, 984494502, -1137824421, -1123147829, 997240391, -1139104195, 1030264580, -1124687062, -1143287814, 984752892, 1027969294, -1171004691, -1164768116, 977145468, -1144200542, 1011355951, 1007722513, -1130354760, 1020948421, -1148805186, 1026140376, -1125003217, 1004615973, -1133265853, 1002451220, -1125527108, -1131521264, -1124953014, 1024347244, -1123358488, -1121752387, 998556773, -1124046956, 989956370, -1147166993, -1140673979, -1152591113, -1138274506, 1017091708, 988870837, 1016486940, 1016235556, 1008415044, -1122832394, -1118339662, -1129483052, -1124091136, 1017351028, 1008394987, -1142542596, 1007574214, 1027125689, -1124932886, 1023390896, 1029202769, -1116858601, 999078374, -1160052124, 1032030167, -1137176872, 1008309854, -1139844538, -1124787844, -1129762287, -1124024445, -1148441157, 1007314696, -1115935014, 1022370588, -1131472747, -1129202002, -1132373579, 1014674360, 1012344779, -1140700528, 1003478748, -1155243209, 1008524482, -1137611904, -1132197863, -1133259350, -1148586830, 1027283407, 1023514497, 1022791340, -1129469751, 1003814463, 1020343277, -1119747403, 992776417, -1132522380, 1016003122, -1123599664, 1015422882, -1137695504, -1132934907, -1145665830, -1130614835, 1006842037, 1014311726, 1018190684, 1028635027, 973438957, 1006566036, 1023824457, -1170710693, -1132163664, -1127747882, -1124708691, -1139856684, -1130352928, 1008548863, 1027036260, 1032507127, -1114894216, 1023391602, 1022539090, 1017824449, 1023247155, 1016910163, -1143819683, -1157255553, -1147989066, 1025241933, -1129510973, 1002495092, 1024983293, 1013964359, -1142722521, 978952271, -1149637977, -1126659365, -1138353103, -1137057080, -1129407169, 1027844338, -1159289848, -1130148256, 1020415500, -1124994397, -1149348679, 998269555, -1127935844, -1139154336, 1004702214, -1144853318, -1136271565, -1127139146, -1129585444, 988792055, 1012605378, 1020055012, 1009663690, -1131105479, -1146536276, -1132132452, -1136490471, -1127495668, 987854991, -1131802186, -1130265622, 1003767081, 1007717544, 1008267176, -1141566555, -1129409358, 1007044085, -1139211386, -1124184454, -1120042146, -1131968080, 1009410530, 1015775184, -1129985880, -1156626663, 1006585342, 1020191554, 1020647150, -1143641340, -1138796749, -1190742554, -1127253809, -1131876861, -1133002721, 988660908, -1123216609, -1122223329, -1126747667, 1008604869, 1012298695, 985919361, -1138001208, 976326424, 1016868431, 998645106, 1005810689, -1127244956, 980821725, 1001638979, -1123178190, 1018728387, -1147489163, -1147199099, 994227516, -1155431696, 1004287943, 994197993, 1006884878, 1003242729, 1016971048, 1008754783, -1127651618, 1001496487, 995439995, -1155579935, 985766840, -1135731937, -1135483939, 1008324786, -1130091444, -1123819773, -1123799193, -1134334503, 1003148188, 1003635185, 1015105036, -1147607668, -1147895176, -1129313814, 1005666676, 1020697261, 1012339486, 1015977413, -1138213538, -1136170592, -1133443618, 1017624308, -1139704138, -1213111223, -1132918015, -1131737270, -1125496985, -1141628248, -1138560528, -1131122862, 990441754, -1164075495, -1154474009, -1137815068, -1153524960, 1011300489, 984153013, -1137205669, -1127414269, -1138517180, 1015843396, 988798214, -1157640131, -1145491789, 1006059264, 1015514467, -1136402893, -1148411159, -1155256855, -1132055692, -1165472343, -1140107676, -1139354555, 1006859650, -1147650992, 999921649, 977659185, 1007760732, 980263010, -1133585106, -1148168187, 1016830130, -1143690531, 1001019798, -1132075143, -1126940859, 1008440667, -1135286157, 1011019584, 998915074, -1150026844, -1150729314, 999924979, -1140826501, 1019347259, 1026452300, -1151414017, 1002930651, 1015141369, 1011725083, -1140929478, 1012247859, 1012425416, 1009440278, 1024192680, 966439448, 1015151108, 1019717589, -1148596828, 1021640949, -1130149867, -1142116604, 1003061929, -1142541202, -1129790802, 1009365710, -1126437969, -1163620977, -1139878115, 1012994166, 1006873830, -1153688179, 1005696962, 1003718711, 1008569276, -1156797639, -1152292907, 1011380146, 1004436671, -1135747659, 1011761378, 1008103557, -1147981390, -1152585186, 1001201357, 1013584471, 992951552, -1156486871, 1009435137, 999527317, -1170855501, -1136309066, -1133456748, -1137162805, 1005133134, -1145083807, -1133868960, 1016903223, 1004252138, -1132122497, -1130619842, -1146851586, -1147177590, -1134650167, 970104440, -1143018214, 1009944691, 1008392099, -1150531002, 1015093973, 1016440994, 1016154600, 998517602, 999092468, -1129248092, 993659643, -1134818118, -1134168110, -1177435982, 996691124, 1024329490, -1146284098, 1008709992, -1139728619, -1146085184, -1170434477, -1147195433, -1147769390, -1154417313, -1139770112, 1000060330, 1011877483, 1024914061, 958552675, 1000629154, 1024196969, 1015978964, -1128125127, -1146936008, -1161811245, 1009042737, -1129727969, -1144765475, -1143622426, -1138301985, -1126474841, 983304100, -1145223258, 998508576, 1013341213, 981938457, 983251309, -1145247527, -1146079457, 1019546517, 1008040534, 1004099367, -1139989442, -1152692287, 1012984728, 1025685514, -1142873609, -1138039480, -1165130968, -1125745057, -1136173425, -1128113057, 982121285, -1125940634, -1134836066, 1009488203, -1130733327, -1169040335, 982516284, 1012742269, 1021321020, -1139819129, -1137647437, -1143581399, 1016047072, -1148805300, -1157204396, -1142413102, 1026605342, -1139674416, 995089573, -1144372897, 1012790331, -1144219151, 1006178741, -1137456545, -1149223039, -1140196642, -1139134879, -1146518444, -1147180525, -1158105814, 1017666515, 996734085, 991139150, 1017522431, -1131579709, 1003067290, 995375149, 985792900, -1166287130, 1003184436, -1139527226, 993274056, 1015429846, -1132461639, -1146953480, 1019219751, -1134629622, -1130390475, 1000840753, -1146518480, 1000008812, 1008695880, -1138994052, -1165105212, -1145599217, 993420390, -1173530832, 1015540866, -1150029763, 969444012, 1006055834, 1007601740, 1017618521, -1139252158, -1144864043, 1000913339, -1153570584, 968389043, -1136195940, -1188489267, -1131332966, 1024546209, -1147306728, -1130205867, -1124212183, -1126515791, 1013436008, -1131447807, -1154504890, -1182263405, 1013857860, -1153567040, -1130642999, -1143513633, 1005514066, -1136675571, -1174189226, 1024583121, -1139803813, 1015973205, -1125805075, -1143385984, -1146744205, -1130641739, -1138085309, -1143026450, 1013567747, -1137237369, -1144620196, 1026113566, -1145103604, -1132272735, -1134419734, -1131587569, 1030795638, -1163027681, 1015850988, -1139215185, -1139986048, -1150369180, 1023633914, -1139275779, 993966056, -1124471627, 1016246481, 1004220698, -1147278133, 1010341318, 1015619348, 1012489774, 1016207897, -1137389080, 1024380690, -1127906652, -1166000449, 1008413286, 1000874835, 1012371928, -1139174886, -1134864487, -1136646856, 1025383359, 1017098382, -1127683322, 995826720, -1140873495, -1141562903, 1007472650, 1011689883, 1014255265, 1010962769, 994379598, -1139925146, -1154299632, 1025184966, -1149827904, -1129526367, -1136816094, -1129919787, 1013801350, -1144746653, 1020940347, -1130316684, 999069869, -1122482100, -1120348150, -1138772956, -1125769991, 1031197241, 969523608, -1164854677, 1011944649, 1023236054, 990352301, -1135135460, 1002215567, -1146465511, -1157216546, -1148168643, 1017307642, -1135569790, 1011491086, -1122874050, 1025632729, 1010791311, -1125540247, 992713803, 1015919969, -1131316087, -1149236001, 1006361408, 1024667916, 1002100599, 1010178812, 1024162297, 1015551780, 1022993466, 984673611, -1122578363, 998484042, -1156785642, -1128814203, -1171040240, 998980202, 1004889963, -1131464643, -1128094246, 1023586666, -1123009742, 1010774639, 1024194534, 1015382681, -1147821074, 1012733344, 1001493471, -1122712870, -1148416463, 1021156493, 1024016546, -1148084372, 1017165380, -1135678443, -1160039869, -1151806799, -1129246152, -1138519863, -1135599732, 1007741918, 1011533231, 1010293527, -1135957328, 1023461267, 1017102848, 1014343375, 998522049, 1031324817, -1137394875, -1139060859, 967558841, -1122842403, -1127503767, 1020555715, 1024108903, 1002796717, 1015848158, -1157175092, -1127439353, -1130897462, -1131374686, -1147747731, -1148986777, -1165733258, -1157134321, -1139912520, -1165318786, -1142797911, 1026303548, -1123052643, -1134967917, 1012908599, -1124604528, 1016669875, -1164102392, -1143934138, -1141489141, -1131298864, 984929273, 993836983, -1128536292, -1181812291, -1156632954, 1016640967, -1128361842, -1149120132, -1133558672, 1020936478, 990638400, -1187659194, -1146176982, -1125064614, -1136725508, -1132181155, 1015462793, -1148462099, 1024125045, 958667989, -1145741586, -1127656274, 1015503074, -1122016745, -1137119088, 1012420302, 986569953, -1129397983, -1119792194, 990693961, -1128247685, 1002682945, 1029454957, 1016897342, -1138093004, 1020286407, -1132546226, 1022541809, 1019826077, -1153939448, 1011040049, -1120495422, 1009030133, 989858900, 1016897233, 1008008783, 1010413888, 1000668357, 1005740922, -1156718641, 1003550869, -1138784036, 973940257, -1142711018, -1152595971, 1010236205, 1021981491, -1139593536, 1016565852, 1003242239, 974958108, -1132592378, 995324835, 1011676935, 985877551, -1146768955, 1008113157, -1139545665, 1000738174, 1002835869, 989468588, 1007776117, -1140200987, -1139204329, -1104525515, -1133516468, 1005302244, -1127196037, -1150076454, -1140195048, -1154617110, -1121779562, 1035496662, 1016079441, -1129303199, -1127765169, -1127834989, 1017516740, -1138249354, 1024929009, 1004578199, -1150250530, -1130956751, 1006702714, 1036719913, 1025044170, 1013385257, -1126754821, 1027240443, -1119569698, -1125636051, -1115207881, -1156915061, 1007166304, -1149516969, -1142101237, 1000511059, -1120346309, -1130649166, -1146780271, 989066272, -1136608298, 1023694772, -1138068046, -1146228383, -1122705863, -1143620585, 1020751694, 1007355296, 1037253740, -1132290497, -1150007284, -1132590048, 980218552, 1008673945, -1145612067, 1011351591, 1017988252, -1126377975, 1010400035, -1131474269, 1003002749, 1017066130, 1008090456, 1012441007, 1030290264, 1033728213, -1116383250, -1134439591, -1116212399, 989934014, -1138977977, -1113598711, 1012822068, -1151560862, -1120969539, 1022324281, -1162518288, -1133172657, -1111266798, -1144742911, 1019372568, 1016984630, -1155678289, -1173505776, -1129026530, 1008257135, -1139044515, -1132571523, -1158502577, -1130063305, -1165700785, 1005416816, 973657849, 1015791268, -1138850595, 985177016, -1161923691, 985581191, -1122968175, -1165546869, -1129478017, -1120469721, -1136126434, -1118013093, -1129728634, -1112946224, -1122083042, 1030634393, -1137665299, -1139738773, -1147895241, 967507988, 1008407797, -1147420573, -1124712603, 1011318408, 1030874604, -1148946995, 1006417490, -1145519482, -1124152934, -1140509328, -1141134444, -1135514127, 1010096508, 1013131701, -1128209750, 1009412658, -1126070603, -1209049285, -1150106352, -1146903933, -1126687163, -1144069724, 1007809729, 1014534305, 994858592, -1131376259, -1142503973, -1131195824, -1142706145, 1017193830, -1160938721, 1012456767, 1012052021, -1140436274, -1148880341, 995411022, 998386677, -1136773541, 989390969, -1122027815, -1132202062, -1134382815, -1135049946, -1147928171, -1137975819, 1008911467, 977739779, 1007381940, -1138581077, 973709535, 1007919930, 1003993204, -1141979788, 1005397295, -1152802009, -1146340760, 1021934939, -1105714517, 1019983944, 1012879297, -1122768896, 1024377996, -1138279027, -1150933096, 977853085, 1002677069, -1113231500, 1015569901, -1122293355, 978642896, 1012989286, 1001720389, -1128262367, -1132459212, 999626931, -1149506407, -1151367615, 996714745, -1135701143, 1022869850, -1122757949, 1013768271, 1016791876, -1132349206, 965814980, -1130614170, -1207328924, 1010098269, 1018645087, 992956687, 1005552751, -1132711552, -1122398167, 988714923, -1127597722, -1137592804, 1011798923, 1027524668, 1011118296, -1122616578, -1131313632, -1136569929, -1153558806, 1020772153, 991754354, -1122787516, -1130677628, 1027768703, 1023289122, 1010675941, -1142431471, 1009380723, 1020920200, -1129714859, 1018343100, 1002917922, -1141511371, 996080453, 1013285534, 1033593036, 1006911496, -1130225525, 1009665013, 1022504043, -1149041974, 1021606661, 1010185987, -1117994580, -1122129690, 1014224484, 1011891362, -1125967323, -1128489846, 1009501038, 998303613, 1006155463, 1012166691, 1017213051, -1160171372, -1132387369, -1142466951, 1025086878, 1007080194, -1154627092, -1127677183, -1130362102, -1135112624, 1036775931, 1005996926, -1121770276, 1002456800, 998942937, -1114191788, -1129022213, 1025320458, -1119858055, 1021554988, 1012760790, 1012506209, -1132333556, -1125385563, -1132204450, -1128730155, 995517700, 985585173, 1005156376, -1121243189, -1109834901, 1008053870, -1123396538, -1129346566, 1026002579, 991047667, 1014865642, -1137625848, -1157851715, -1165268245, -1151417767, 1007037420, -1162943007, -1125866606, -1178693095, 1010028038, -1152510388, -1133887659, -1140637062, -1127416621, 1015953966, 1012993359, -1129346439, 1011481810, 994276412, -1116692730, -1134655653, 1020360492, 1017313133, -1130008036, -1141493586, 992499965, 968522522, -1128045153, 1019879223, -1140668311, -1129972128, 1006217134, -1145260568, 1009719490, -1122160131, 957467342, -1123057857, 1028839688, 968921552, 1024612303, -1154490700, -1134115896, 1025002349, -1161490172, 1016693109, 1026732842, -1142655528, -1137988403, -1136108811, -1131811963, 994793712, 1027041323, 986859875, -1131135493, 999755729, -1129486039, 1019064183, 1007077683, 1017721744, -1147101238, -1137197009, -1133392743, 1012818634, -1139684656, -1124268488, 1007386889, 990678894, 1017700225, -1130683525, -1135591455, 977346539, -1153422143, 1010585045, -1126900858, 1022077148, -1169029112, 1025557308, -1122384543, 1011490064, -1133362729, 991885410, -1148826199, 1009692704, -1138808853, -1123971474, 994554880, 1016713121, -1119912534, 1012586544, 1016490144, -1156070072, 1023659625, 1008180542, 999949251, -1128898801, -1156293987, 1014386671, -1140969908, -1128993574, -1169996759, -1123417018, -1157548127, 1008814070, 1015553274, 994487988, 1018810773, -1148870666, -1126576833, -1143458639, 1002115302, -1124360541, -1130662500, 1023652175, -1144121270, 1011669878, 1008834025, 1007332489, 1015767581, 1002427214, -1135489663, -1131187691, 999309420, -1129959523, -1164702438, -1138203816, 990225710, -1138510725, 1019854167, 1001156521, -1132795637, -1139583589, 987417153, 1014932749, -1167348034, 1007314339, -1159482474, -1134259582, 1016103688, -1126547287, -1123040356, 1037866805, -1136038926, -1136829600, -1119145739, 1012983339, -1130172482, -1173005261, -1121755866, -1132460904, -1116937744, 991973540, -1123870933, 999569237, -1131605049, -1145745601, -1128338034, 1026050688, -1168170598, 993673851, 1000280926, -1139014187, -1128906086, 1015677376, -1138106220, -1128255998, 1022347200, 983565204, 997172071, 1016973459, -1131818290, 990111803, -1132684481, -1147146318, 964766709, -1130514859, 1016059357, -1148994258, -1138272280, 1016914399, 1016517694, -1118698037, -1130880988, -1121237855, -1141791236, 984298527, -1122458099, 985384620, 1013033268, 996026508, -1138921443, -1120204315, 1013139648, -1131366885, -1130111379, -1132802266, -1127254197, -1121625984, 992179298, 998599738, -1139610492, -1135744162, -1119828198, -1114624788, 1002798649, -1156350796, 1007700408, -1126963989, 989259815, 1006086038, 1019224428, 1032314929, -1127616764, -1130631928, 1018287087, 1003313443, -1128450613, 1013792110, 1002112729, 1022459109, 998565611, -1143632501, -1134860961, -1143655570, -1125284463, -1135732422, -1152451200, -1124430661, -1118272970, 1007742730, -1120651598, -1140542160, -1130708491, 1008291392, -1163835605, 1003544251, -1129823146, 999079452, 979387491, -1126777985, 1017959936, -1119144143, -1131128617, -1122455629, -1120740293, -1139430487, -1122898063, 990024617, 969562806, -1134982175, -1136626530, -1122701943, 1022237410, -1121310590, 1029266669, -1132370778, 1007900999, -1118689417, -1128405354, -1123009261, -1128725967, -1129340838, -1134865341, 977184773, 1027093994, 995250441, 1023889555, -1143151043, -1137087166, -1126676904, -1132472774, -1139810455, -1116184153, -1120654304, 1025564010, 947896501, -1128636844, -1121956736, -1114133456, -1138770851, -1151130268, 1020692618, 1006470911, 1017979983, -1139207851, -1131826030, 1000774847, 1013369078, 1009192019, -1114647923, 1023499157, -1138967755, -1151777177, -1125085256, -1121581141, -1120166268, -1202241184, -1121217433, 1015029375, -1144122615, 995447009, -1122630978, -1123984001, 956945938, -1121794534, -1140274670, -1124156648, -1125094619, 1026336535, 990556538, -1131324685, -1128892923, 1006210186, -1123181834, 1023228289, 1004808381, -1140497459, 1017910477, -1121208894, -1141062986, 1025874690, -1137019352, -1131878283, 1012691052, -1113749330, -1123621408, -1119529865, -1117998647, 1025034697, -1128987981, -1144790453, -1124339106, -1130996148, -1121114131, 1015204549, -1135796985, -1168539566, 1024806587, -1130394939, -1137479561, -1128907312, -1126593841, -1146083097, -1121019322, -1139562710, 1017965478, -1118109776, -1123585084, -1122640637, -1126675869, 1003921626, 1024994017, -1123289784, 1028046997, -1130557753, -1119585435, 1023461776, -1121166721, 1025886908, 1015477475, 1031914210, -1153693815, -1120870732, 1027482853, 1016237093, -1126640800, 1009226793, 1008437957, -1124037722, -1117867777, -1127494451, -1121099671, 1024501860, -1119797113, -1128713298, 1025682502, -1114088842, -1123084760, -1140191480, -1161443337, -1121148743, 1014557663, -1121875989, 1010793923, -1123524532, -1134870955, 1017469878, -1137254740, 1012689261, -1124081627, 976892030, -1126170021, -1118449138, 987350772, -1124996577, 999676060, -1139928137, -1123823900, -1139394823, -1118242995, -1130704264, -1129193882, 1015828504, -1130130815, -1117537748, -1118896526, 1026794138, 1016379416, 1018358448, -1134286387, 1005989347, -1144946154, -1163467210, -1139509538, -1126027397, 1019545759, -1131223026, -1128461989, -1158215613, -1145088274, -1124921074, -1133348138, -1133625378, -1132510890, 982578299, -1132101525, 1019263515, 1008940932, -1125209937, -1141780209, -1128513025, -1118529344, -1131433582, 1009076659, -1133362614, 986694881, 1004755722, -1131028394, -1121493679, -1133278294, -1121837055, 1018023709, 1000383119, -1142659802, -1121239696, -1155408752, -1156306177, 999240722, -1129903693, 1013786166, -1124317989, -1121853978, -1123837738, -1131505014, 1011480831, 1018129827, -1124736565, -1130156814, 1019807287, -1119560771, -1121015702, 1020837643, -1137445812, 1012168814, 1029303345, -1143141100, 1021317839, -1138172206, -1126381102, -1121495514, -1119169672, -1128218416, 1013991902, -1127141830, 1029318386, -1127842694, 1024080256, 1021232595, -1123672181, 1015709760, -1156284081, -1120707664, 992589181, 973440013, -1139973251, 1011393526, 990677413, 1004172620, -1139808249, -1134378107, 1022189548, -1148130804, -1131241726, -1128492391, 1012816861, -1139536687, 973299624, 1010781694, 993214540, -1130454764, 997436313, -1129787876, 1000016964, 988706799, 1008298515, -1142242734, 985022312, 1021101761, -1148038462, 1004654263, 1002414657, 1001207381, 1010960702, -1157630303, 1015575710, 1004526938, -1166065235, 1012555899, -1139204712, 983584858, -1140659326, -1151624288, -1137046104, 977893623, -1145987818, 1000429177, 992677158, -1133593252, 1004206280, -1172155183, -1141618373, 1010754674, 1012401948, -1131761598, 1004115092, 1007473180, -1139331397, 1010290583, 1019713242, -1138043828, 1010842852, 966138454, 998938930, 995483164, -1138233265, 988145091, 969063238, 999433570, -1139626250, 999823222, -1131710216, -1158618280, 1011068463, 1014289902, -1135467544, -1152696877, -1154180634, 972040098, -1137605006, 995053131, 995672891, 1015931184, 1012940814, 982139561, -1176255577, 1012685332, -1150703965, -1142801887, -1144282748, -1136071672, -1201862044, -1156247167, -1131881090, 994159550, 1002036857, 1015844169, 1005142331, -1128847159, -1143482005, -1144285911, 1006847904, -1146451022, 1008266559, -1135874326, -1149643328, 989071954, 1006189474, 1006651419, -1147748440, 993307871, -1130032685, -1135041595, -1124080257, -1160805036, 1012396007, -1130188089, 1013589920, 1005332980, -1137121725, 967032458, -1148825846, 1000118512, 1008579606, 976400174, 1002068773, -1187475494, 1002856044, 1008819917, -1140003465, 1015853919, -1162497217, -1133130228, 1004131343, 966195096, -1149406523, 1000021625, -1149188886, 997362745, -1176092124, 943299854, -1139827799, 1004770019, -1144191155, -1137815978, -1146320927, -1155333394, -1168899518, -1139210885, -1190504415, -1138530443, -1153451993, 974214180, 1001244272, 1018196775, 1013304943, -1134150932, -1129022068, -1178228714, -1163389182, 988677784, -1131631806, -1132159901, 990575138, -1137510276, 1016597437, -1132382545, -1134363509, 1015257923, 1019799755, -1147062384, 1016092282, -1156719835, -1140649862, -1145920479, 1012172041, -1139232426, -1146996903, -1132863645, 951610286, 1002055471, 1007405763, -1148907548, -1149307176, -1162571556, 988038203, -1151181219, 1003782557, -1140612110, -1160062399, 1008845247, -1137032827, 1006664540, -1136396108, -1133631794, 1007859817, 986930828, -1137355580, 1026221076, -1134382469, -1173963038, -1163887863, -1150456640, 999106138, -1159914871, -1141372629, -1139990457, 992366650, 1007541631, 1002899118, -1135961900, 973338446, 1010546085, -1180538834, -1167427321, 1016139765, -1142315260, 1008435273, -1166753880, -1159482301, 994971905, -1139860609, -1132637289, 999818058, 1017751457, 978095083, -1147873062, -1139567604, -1131828550, 996563768, -1141339648, -1140503131, -1146275020, -1156662220, -1145336506, 979352556, 994282128, -1146426586, -1151358284, -1142750614, 988626670, 1003710913, -1140720582, 997829474, 1011359077, 1012772296, 1018265121, 1007857617, 999872033, -1133933721, 996441412, -1188501361, -1145742561, 973966999, 1007316385, -1131736138, 1003772759, -1155422365, -1145678779, 1010785358, 1007628573, 1014418650, 995185860, 961768498, -1105189636, -1123494506, 1004492887, -1143239599, -1156558385, -1121249817, -1167496232, 1013966459, 1005737818, -1131609252, -1149212702, 1021425765, 1024080002, -1116433464, -1126024202, 1017624826, -1147098682, -1145072948, -1138293134, -1157961225, -1106467277, 1014294609, -1135346448, -1130138300, 1031033985, -1132983877, 1001811151, 1032812045, -1149475752, -1131522897, -1116225373, 1014069524, -1130409691, 1006060127, 1014430662, -1136626257, 941175097, 1002019239, 1023243896, -1132237664, -1137015564, 1015589149, 1008004869, -1134074503, 1009648402, 1023114071, 1016159844, -1137782650, -1131205157, -1143487261, -1150938407, -1132853174, 1020520952, 1025889559, 1026570528, 1000657494, -1130660972, 974926862, -1121398826, 987934945, -1132113742, 1014115314, 999420062, -1124398896, -1127684151, -1132956568, 1010001415, -1145751579, 1007056962, 1009555544, 1017022228, -1151966800, 1028185421, -1125932727, -1135379095, 1041512152, 1025353679, 1009155362, 1016217863, -1126102756, 1003343070, 1029568064, 1012058604, 1012578961, -1114048702, -1139102326, -1137625078, 1012164242, -1131413035, 999077040, 995572698, -1128883073, -1149150757, -1132162728, -1157730478, -1162723721, 992895773, -1135513981, 992170486, -1141846579, -1155878196, 990586893, -1140724276, -1147719984, 1018481927, 1015071093, 996412430, -1146076007, 1017103364, 1005951125, 1008283481, 1035453225, 1023002402, 1007310698, -1145536971, 1006028693, 1004988840, -1111233307, -1150179040, 1011411339, 956652986, 1013699693, -1147251893, 1008721601, -1137702618, -1129060522, -1148675833, 999674300, -1148352728, 1015682238, 998659002, 1019168364, -1138449991, 1028953164, 1009590376, -1148680339, -1125165810, -1121222440, 1010491099, 1027273499, 1008246959, -1134049357, -1138659163, -1142652927, -1142707055, 1004252035, -1128650020, 1016137992, 996806479, -1117831122, 1014857345, -1166214313, -1140645615, 991640026, -1149225309, -1141223558, -1145363783, -1125809892, 982101824, -1122607691, -1129598504, 1016050624, 992610591, 1018555700, 1023530426, 999634668, 1011766099, -1131507721, 966488459, 1011021186, -1136067767, 990295088, -1138144005, -1113720021, -1140734553, -1120457044, -1123954351, -1127129226, 1000320707, 1001606478, -1134304351, 1008644979, -1140291881, -1134983225, -1142292303, -1110278147, -1133222042, 1018012248, 1021888592, -1114822706, -1121959083, -1156258525, -1130877623, -1119705667, -1119344999, -1141816604, -1154259051, 964081270, -1139783489, -1145033959, -1123288384, -1127936973, -1139417762, -1138127796, 1020954816, 1010602870, -1121604764, -1115187233, -1123163746, 1015113546, -1127209441, 991723719, 1011429461, -1147525639, 1038059139, -1124691304, -1138368965, 980668668, 1006121289, 1023614111, -1118476787, -1120326319, -1152875038, -1139058310, 990011847, 1006902168, -1136499015, 986775369, 997702948, -1123548895, 1013537636, -1130481585, -1134515074, -1138862083, 987296816, -1136879693, -1125648756, -1126341181, -1139602639, -1142304851, 1017721601, -1133313459, 1010631737, -1147949538, 1025548298, 1010268438, 1008178451, -1146958361, 1006685155, 1015050563, 1005990367, -1129473885, -1135766339, -1149201035, 1013512328, -1137420616, 1017989140, -1144976600, 998607583, 1007409289, -1138654687, 988424292, 1010481270, -1129500513, -1129258076, -1114493762, -1143997378, -1129230726, -1129704205, -1147880316, 1006957181, -1122472779, -1154286582, -1145011899, 1024282667, -1148828174, -1151501488, 1028681774, -1124042661, -1118136087, 1014136617, 1015113930, -1126831874, -1156492643, 1011131651, -1133747319, 1001549789, 1008152988, 969122431, -1127683240, 1013024959, -1143024426, 1023512328, 1005475143, -1135351539, -1144581475, 1019804262, 1019793672, -1162430936, 989913747, -1149134115, 1020490627, -1134623060, -1125836940, 1015908290, -1142070210, 1011739988, 1010799075, 1011574959, 1011493345, -1154119844, 1011555698, -1196975797, 1021483944, 1013483411, -1111512785, 998610863, 1005375605, -1140896312, 1008814247, -1125036723, -1140709715, -1131818834, -1124843685, 1009713171, -1147912079, -1128520484, 998450913, 1026877890, 1011866276, -1144905392, 1016204282, -1147913503, 1019699603, 1023508255, 996922437, 967278276, -1149111247, 1010477073, 1013780021, 1017341600, -1136991590, -1189952381, -1159198923, -1143120301, 1024529744, 1007783650, 1024960054, 996379756, -1136020978, 1006885813, -1142084172, 1015562643, 1014384866, -1122930792, 1017344758, 934288456, -1174845229, 1004652366, 985789039, 1015757027, 1016961567, 1011025784, -1151386106, -1165831434, -1133653087, 997829238, -1145925332, 1033128148, -1163583000, 1018963229, 1010047127, 1001912128, 1023790960, -1141589046, 1025927612, 1017491909, 1017903004, -1135293591, 1012078841, 1013446474, 1002299558, -1149101724, 1009682865, -1124868434, -1124636385, 1011014478, 964833034, 992660570, 1024740021, -1141407082, 1008770455, -1129722519, -1128552475, -1136551116, 1013339513, 1007740091, 1010527339, 1022626380, -1134359142, 998510320, 1020659119, 999172652, -1137310234, 976070113, -1138757232, 1015991375, 1022252712, -1146520873, -1140091618, 1030596101, 1000066603, -1131141029, -1131460926, -1154447511, 995512719, -1134802146, 1003230307, -1135064226, 994843762, -1129390731, -1137098781, -1130966800, -1138365279, -1147380877, -1123584257, -1124013721, 999101091, -1122129576, 982271463, 1005705688, 1000210689, 1023390148, -1147526187, 990865908, 987236231, 998108104, -1131681303, -1130326980, -1125645806, 1014101892, -1139625111, 1020941549, -1140622075, 995138182, 1015012635, 998572111, 992604316, 1012811394, -1128764498, -1150424350, 1015339061, 1001734302, -1150249761, 983151986, 995394398, -1127762824, 985629977, 1015031249, 1030829251, 1016729284, 1021477003, -1136198630, -1127586740, 1018284752, -1137992594, 1018114206, 1011353646, 1012527894, -1142529614, 1019232467, 1007443021, -1139348715, 1001858794, 1013841016, 1008344083, 1012674240, 1023363136, -1132582251, 1002246148, -1150753623, -1138656953, 1010259933, 1000966710, 1004385549, 1019651901, 1007361061, 1023192011, 1023683475, 1011243711, -1137865065, 1018823524, -1157475440, 993769714, 1005763230, -1130869425, -1130768578, -1173030570, 1010729388, -1132702910, 1009300990, 1015097561, -1128710990, -1152320116, -1152513467, 1013642063, -1146469551, 996384250, 981709618, -1188338543, 1009954160, 1021629617, 997279169, -1160967270, -1135155081, 999417544, -1136843939, 1018931749, 1016401923, -1147043664, 1010446654, -1133671528, -1147337750, 983892112, -1143570444, 1012992192, -1165610087, -1154211373, -1148755397, 1016238730, -1145729509, -1140955593, -1147335423, -1152689141, -1140292150, -1151859921, 1000713544, 1007667168, -1134362568, -1147279893, -1161767515, 1003207526, 982070277, 1001300852, 993143309, 1012338906, -1130792829, 1005082468, 1011051263, -1135472279, -1163093352, 993502767, 997296502, 992595582, 983090315, 1001573121, 985658596, 998231047, 1007134682, -1148015066, -1148937603, -1133395368, -1129194095, 1009753603, 990053994, 1002850618, 1005476181, 999034142, 991896458, -1141194695, -1150147074, -1128163681, 1009589451, 1006979097, 1008652663, 1007037873, 1003848811, 999686518, 1003284118, -1138511418, 999237578, 1007200530, -1143308726, -1136178532, -1147217745, -1157582088, 1001599959, -1143599640, 988882776, -1152680396, -1142121011, -1155839681, -1132005078, 1016636648, -1144618915, -1172652935, 1008618220, 1011305942, 991750394, 994033563, -1152985860, 1006491980, 1007038943, 990437734, 1003134646, -1139377268, -1162978178, 1008728955, 1008556177, -1134855396, -1152056895, 1003798960, -1133997962, 993508896, -1142107576, 996547051, -1135684305, 1000346363, 1007372376, 1007922479, -1148930621, 1012454407, 1002207464, -1140832295, 1009701654, 1018648119, -1153444585, -1132475090, 998682853, -1140511790, -1137463156, 995123809, 984522436, -1136854914, 999641308, 987077688, 989379016, 1002098638, -1155218463, 1005089219, -1147714653, -1138801032, 975634597, -1156505472, 1011231811, -1132355514, -1136434230, 1009302661, -1138771129, 977858328, -1137029226, 990500454, 993825476, 1002400425, 988130138, 1007981396, 990750450, 968599253, 988230041, -1152512853, -1146954261, 1005101776, -1154106204, 1001618776, 1005571705, 985170428, -1149159398, -1139837516, 994558395, -1139515519, -1157140350, -1148142790, 986146279, 1002651113, 997926320, -1143084786, -1148458472, -1149183355, -1148551663, 1007141494, -1139604772, -1141739569, 993317111, -1146875151, 988241269, 993627394, -1148041755, 998741847, 1002802220, -1139565849, -1142670339, -1136087378, -1148321345, 1004455882, -1156549280, -1140721362, 1006884371, -1140037193, -1176227730, -1129115665, -1174044482, 999444171, 991694628, 987053905, 1007874399, 1001130407, -1136369772, -1139855598, -1143563844, -1133780333, -1149040588, -1138242552, -1145699750, 1006607546, -1160502373, 995067851, -1141095991, 1000942316, 992899462, 973769960, 1002033223, 990954559, -1146276708, -1139341867, -1147940515, -1153757639, -1148951045, 1010561869, 1005370799, 1007733241, 1002691175, 998968069, 1007513590, -1147674905, -1147696528, -1130416825, 1002291441, 1007743621, 1003266413, -1142206080, -1137862787, -1140808982, -1168289232, -1143101371, -1142332398, -1161415115, 969445230, 1008027627, 990273765, -1143075554, 1014889955, 1003516049, -1145625794, -1143855699, -1151879583, -1162114776, -1140696609, 1015282625, -1143578454, -1143486518, 1004369487, -1152881802, -1150007690, 1006904137, 1004316754, 1013140722, 1015047617, -1146551876, -1125805390, 1010803331, -1131261341, 1016393640, -1161369646, -1136322430, 997206007, -1135961648, 960629042, 1004520851, 1027791762, -1123357299, 1000005456, 1010219040, 979123519, -1157154110, 1009505346, 1025052377, 1018921978, -1136331175, 1010631453, -1146014888, -1145117086, -1151179517, 1005070051, -1146030074, 980706882, 1020559648, -1132629581, -1130140727, -1138338933, 1016475402, -1126972598, -1144412141, -1124592670, 1025020638, 1026302198, -1144624572, -1133214717, 991481050, -1140679064, -1152002976, 1021554850, 1018424806, 1006538701, -1156462961, 1016655581, -1139017409, -1123491640, 1022323712, -1113738558, -1159398805, 1021310096, -1133789181, -1139971705, 1017129384, 1016762776, 1017292197, -1138943214, 1031584751, -1131892856, 1003866140, -1136878065, 1011387672, -1130208126, -1174949277, -1125496660, 1026383820, 1011848062, -1115419725, -1121986186, -1175950356, 1016952138, -1122288156, 954746880, -1153109692, 1010064372, 1007567029, -1125743445, 1024933525, -1123782209, -1157512581, -1124877637, 1001213329, -1144800958, 984334352, -1128760327, 1006932415, 1011051335, 1009769849, -1129653228, -1123172423, 1015322964, 1014185806, 1004431853, 1016670715, 1015179922, 993641528, 985295220, -1135871174, -1130388475, 1016677732, -1136275271, -1123131750, -1128700174, 962957180, 1029592312, -1110552448, 1029219678, -1140679954, 1003947918, -1136967030, 1017968113, 962623438, 1008280326, -1130298509, 988549576, -1143456725, 1017053348, 1018689027, 1021507007, 1014121695, -1123842801, 1020655565, -1130606165, -1127328138, -1124736635, 1020190804, -1142543003, -1157986843, 1009433548, -1133081790, -1123056118, -1131939816, 1002793979, 1001073194, -1133168241, 1001213282, 1025771407, -1147318127, 967581140, -1120501564, -1156760991, 1022451271, -1129923080, -1128233339, -1143821898, 1008500785, -1125180989, 1013305207, -1120663376, 1019826403, -1171543321, -1127222994, 1017654063, -1123919255, 997376582, 1019188215, 1007706019, 1017554379, -1140099412, -1133031959, -1146273558, -1143989938, 973164853, 1007183438, -1150261139, -1124821300, -1134692194, 1029250406, -1134369943, -1135719125, -1129083551, 1009906659, 1025476899, 996070010, 1024945811, 1012484568, 1023755362, -1161601206, -1130541204, 1017828714, 1020878918, -1142259227, 1029016920, -1127620159, -1125562743, 1006293814, 1026621722, 1007712698, -1153795666, 1016462342, 1002540822, -1120661071, -1139722126, 1019459485, -1139294656, 1009386121, 1023240207, -1142916748, 1020776126, -1145186988, 1019504320, 1006904187, -1134606734, -1134670618, 977101036, 990837262, 1020361518, -1152923421, 1013609728, -1122161870, -1149271957, -1126651341, -1134956667, 960358628, -1131598908, -1156394485, -1136540887, 1010306149, -1123406846, -1128318988, -1158149629, 1026180083, -1166648639, -1136583174, 1023684381, -1129067716, -1136998256, 1017857452, -1133383814, -1115595309, 1031338448, -1119075246, 1023077062, 1028853120, 1014086565, 995238173, -1140859642, 1019298317, -1107097539, -1140762365, 1012608981, 1006879554, 1011435746, 1029367908, -1128958144, -1138111387, -1126760986, -1147889180, 1000652618, -1129351465, -1140036578, 1029481434, -1125590108, -1143464772, -1129010196, -1142351189, 1016734772, 1023767169, 1011659797, -1143271506, 1032850721, -1125124836, -1123938152, 1016501640, -1123581322, 1025642673, -1128177309, 1020041622, -1151386059, -1127140562, -1131886301, -1140940287, 1016578346, -1127624004, -1137598540, 1018641264, -1149660536, -1149171340, -1115727201, -1171665618, -1126732771, 971311314, -1129256244, 1022765881, -1126385589, -1147532472, 951159074, -1139300154, -1178538959, 1006173584, -1122800111, 1010282418, -1130213702, -1131179686, -1156803424, 1012367833, -1135800359, -1154121003, 1029856650, 998785117, -1138983872, 1016708918, -1155354632, -1174053324, 976362646, -1163477083, -1147329826, -1132313122, 1023217034, 1005187418, -1142183187, 1012923647, 1029410223, -1128024119, 1022540404, -1143762075, -1146715130, -1122569837, -1140083318, -1151634522, 1000774869, -1151563396, 1011611764, 1010566957, 983899438, 1015393906, -1123317975, -1122208881, -1116834540, -1138853444, 1027288113, -1164125026, -1126057036, 1018864184, 1015651546, 1011993694, -1127921187, -1150158747, -1123970385, -1131822009, -1140231852, 1018295798, 1008928229, -1128646949, -1147405665, 1015557176, 1008486192, -1131981095, 1017981192, -1122551091, -1129907054, -1139232346, 983217944, -1155323818, -1142434774, -1155397768, -1131766367, -1135840231, -1140757854, -1129884356, 1003049431, 1017681545, -1132383113, 1017553753, -1138200186, 1016618440, 1019251465, -1138695504, 1005478405, -1128812972, -1154371689, -1138864747, -1141138076, -1129361632, 1023466636, -1132248962, 1018246153, -1149424682, -1138459582, -1136878258, -1151946112, -1137938404, 1019443809, -1163735427, -1142940897, -1151373398, 1012973661, 1014388131, 1010679079, 1027844354, 1017749386, -1153437400, -1131531533, -1123402048, 1019610878, -1145638408, -1120045023, 1018351896, -1144322859, 1021599693, 1013717414, -1148111217, -1138548609, 1018396217, -1129394994, -1160626153, -1133042569, 1029337810, -1149167361, -1145159666, -1126218901, 1015740028, -1155396127, -1140209809, 1012492165, 1015795734, -1126387080, 978801180, 1021359589, -1132133096, -1132395432, -1122095511, -1126364906, -1123977329, 995207213, 1007958123, -1146939286, -1148926002, 1015818811, 1029166124, 1012992689, 1010170815, -1128824101, 1018717273, 983564011, -1137744610, -1148367825, 980099967, -1123381487, 1001798992, -1146900685, -1186373661, 946842299, 1017805021, 1012353770, 1004517855, -1135724376, -1166277318, 1017682426, -1131253835, -1147358135, 1005045256, -1122372620, -1130550816, -1140747052, -1158789052, -1149514398, 1017409813, 1003178055, -1139703789, -1178624618, -1135332356, -1197753087, -1130360930, -1130221695, -1131546118, -1131895606, 988917909, -1145042793, 966237611, -1137933600, -1147710239, 1016784315, -1132186612, 1015912081, 1008924386, -1133535111, 1023073111, -1139099907, -1136458116, 1029569850, 1011410749, -1140349091, 1001925396, -1149225466, -1124846390, -1153191495, -1133321893, -1138193110, -1142086186, -1145838653, -1127445357, -1153292872, -1125809467, -1172469921, -1154878993, -1127597742, 1015610209, -1148470000, 991043701, -1140960497, -1136707299, -1148301529, -1130084621, -1133684254, -1141826608, 1012353004, 994110576, -1148023926, 1001729294, -1139158780, 1003993966, -1152766664, -1133838836, 1004296220, 1014439118, 966792750, 963490437, -1160091189, 1016145962, -1132480213, -1139333906, -1142171465, 1007922665, -1152209012, 991157440, 994748762, -1136254429, 977072801, -1140656822, -1149814205, -1139454411, -1144429325, -1131735850, 1019310842, -1134494044, -1184166978, -1175686034, 1018032388, 1001127259, -1140515207, -1131464512, -1132961571, -1131217591, -1130553526, -1140596636, 1007601591, -1131462335, -1159424225, 1016717973, -1138570943, -1138045213, -1132095024, -1133195161, 1020499560, -1138051802, -1132853223, -1139261187, 1021964954, 1007969504, 994826751, -1134959658, 1002609266, 1000458313, -1153390007, -1134886874, 997070273, -1132375085, -1139440546, -1126979517, 1025844861, -1135035123, 1017792462, -1159581759, -1131376592, -1145973712, 1004152640, -1132247569, -1131735356, -1140431066, 1019204391, -1152936738, -1134860897, 1006681622, -1143816815, -1140726204, 1017746596, 956810913, 1020925292, -1144302974, 1014706489, -1152096227, -1128973608, -1149086477, -1129093349, 1009369601, 1024813100, 1013302495, -1131278578, 1013766170, 1010910522, -1130794473, -1145042111, -1139306524, 998782567, 1006412682, -1126849992, -1140482046, -1133897601, -1136172694, -1144989588, 977726656, -1140009886, -1129702496, 996125796, 1005507776, -1141460614, 1012641535, 1014540885, 1006786207, -1149146406, -1136159844, 1025414951, -1130603795, -1135890077, -1129996940, -1140633464, -1139733385, -1188961943, -1136675591, -1137443658, -1157801741, 1019618488, -1127755924, -1130349968, -1127447063, 1013919204, 1011842137, 1011401973, -1131736538, -1167013823, 1009035819, -1134855383, 1016020222, -1143990640, -1125959013, -1127231077, -1131932999, 1019125523, 993953889, -1124236456, -1134979686, -1131019866, -1131184924, 993941503, 1019834439, -1138086438, -1148248100, -1134753301, 1016846455, -1148583552, 1017336131, -1121758500, -1138595016, 1021987180, 1000004761, 1022381063, -1136270985, 1015079436, -1144676868, 1004578351, -1169371409, -1136620965, 1017824722, -1129382746, -1156188531, 1007921205, 1008333949, -1143838175, 994817618, -1140603679, -1154745541, 1007792447, 990048373, -1140240185, 990141644, 1012609951, 1019406701, 994490542, 985524709, -1130184298, -1142769617, 1016427693, 1009458901, 986047398, 1017110926, 1022871818, -1138923707, 1009383781, 1007932793, -1140139183, -1132204750, -1128760970, -1146468097, 1008682653, 1010045157, 1022694594, 996165158, -1131390165, -1137603271, -1144698557, 1008000242, -1138726751, -1123413325, 1008306133, 1005296187, -1142399309, -1140524457, -1160628689, -1148645293, 982844044, -1142889495, 1003580170, 1016426810, -1166854694, -1173220190, -1159461680, -1137377669, -1133986017, 1015528468, 1001803812, 1027114999, 992398408, -1131704561, -1129313460, -1131180432, -1129433980, 991255513, 1006512024, -1151493156, -1134909780, -1127309941, -1147805588, 968596858, -1155097978, -1152892295, 1007453616, 1007368473, -1137245311, -1158297294, 1019295884, 1024195187, -1136195072, -1140194783, 991820103, -1136747558, 1003872647, -1132420391, -1126909337, -1136423160, 1006582802, -1145316786, -1127045971, 996596530, 1006025196, -1129819697, -1134956642, -1127761796, -1132561981, -1131095512, -1139887233, -1138486287, -1155597116, -1144094377, -1136296645, -1111205979, 1018240246, 1017175437, -1130504250, 998597032, 1006802455, -1143828073, -1125544945, -1131263518, -1158650530, 1017852042, -1145790459, -1136437517, 1021675062, -1120219008, -1136164574, -1125564984, 1022485199, 997913321, 1013589183, -1131580115, -1125085504, 1024567744, -1139416206, 1018813363, -1121306850, -1147171055, 1022425322, -1135625813, 1019361506, 1007916867, -1145826710, 983905845, 1016585574, 1020663741, -1127774177, -1139863557, 985416370, -1157807848, -1143033384, -1139596260, -1136423929, -1126184000, -1139953980, -1142512755, -1145162168, -1140320372, 1001913202, 1004781276, 1024546677, 1028562351, -1126252036, -1172275928, 1013776200, -1137578461, 1016462002, -1131157513, -1135925892, 1013678172, -1132541483, 1011335565, -1138880326, 1013050635, 1026476455, 1006836948, -1140771390, 1016535949, 1014645524, -1125992316, -1123134235, -1115191116, -1154635700, 998499559, 1017758193, -1114691960, 1025726862, -1122346598, -1131286085, 1028789530, 1020142708, 976485920, 1002989414, -1172862618, 1026750493, -1129517349, 1000052112, -1128677215, 1017113645, 1001801474, -1132253625, -1122958222, 1025854821, -1156036915, 1026385131, -1120453490, 1005362428, -1148485641, -1169374621, 1018379199, -1124909845, -1136318961, 1014016611, -1126947862, -1133203524, -1149225520, 1012530596, -1172670068, 1003480323, 1026886042, 1003455009, 1037793186, -1124909745, 1016300388, -1123430740, 1016738160, 1009711592, -1138954996, 1005873939, 996750439, 1020683106, -1142701696, 992571598, 1015157769, -1135811676, -1120352041, 1015998068, -1127060430, 1026953152, 1013754565, 1021009654, 1024118695, 1011567958, -1132032824, 1013800602, -1149939493, 1008336883, -1126364013, 1013811798, -1140799187, -1120853445, 999113500, 1016302141, -1128523982, 1029904163, -1149659969, 1003270036, 1005469397, -1143929928, -1137875971, 1020702614, 1016818952, -1139596255, 1022153583, -1138048661, -1146317399, -1131677330, -1136168246, -1197419851, 994900983, -1126581451, -1130219753, -1128176244, -1157326758, 1030636201, -1148949226, 1009732393, 1020594544, -1130822984, -1130793851, -1148012034, 1026614952, 1021950029, 1019852334, 1010770525, -1154903938, -1137507830, -1155260902, 1010666287, -1135896679, 1016632652, 989790667, -1127147986, -1123872564, 1006591399, 1018707658, 1006560030, 987405676, 1016820897, -1134501036, -1134829054, -1180725751, -1130430874, -1137167026, -1135397830, -1148490711, -1143162083, 1024135584, 1023145707, 978966190, -1147194058, -1134662981, 997401896, -1125149465, 1020107439, -1132999621, -1151141089, 1012994353, 1015855985, 1025051362, 1015398691, 1015831208, 1015977326, 995161655, -1129769139, -1120937691, -1184139567, 1018944628, -1171517978, -1139247160, 1020664911, 1007083590, -1187159142, -1135727720, 984606554, 1024403415, -1170230741, -1126081898, -1139166456, -1132921441, 997902818, 991179094, 1022207335, -1139720530, 989460739, 1002545472, -1139213063, -1122740752, 1023588935, -1148654028, 1008713433, -1128737799, 1017704070, 1018778080, -1135658952, 977035282, 1004428552, -1140679876, 1007258146, -1138641495, -1128669826, -1125495094, -1131507294, -1136511150, 1010035482, 1000027429, 1016515066, 1020992827, -1146845772, -1142987264, 1013896923, -1141694288, -1147582687, -1131363788, -1141977155, 980661009, -1161506550, -1142080867, 1008549053, -1140550629, -1160373005, -1155046131, 1025682054, 1008194237, -1161486442, 997023748, 1002519758, -1123289653, -1143246016, -1148730694, 987758706, -1121774853, -1134652720, -1144522811, 1010047110, -1127823721, -1184303660, -1129231865, 1010147491, 1011137486, 1002781756, -1127309183, -1143428093, 1005532765, 998859582, -1138440360, -1165505492, 1011500817, -1189736987, -1126895931, 1008254992, -1193587262, -1145373362, -1147645238, -1188083429, -1137986011, -1136632358, -1139501719, -1131950381, 1010172704, -1153994582, -1191946702, 980311006, 1011982832, 1012203196, -1131559022, -1148443144, 1018967598, 1006708459, -1152209958, -1142087390, -1140709596, 1003313644, -1134772979, -1144270662, -1141437750, 1005248907, -1127501939, -1143108971, -1144663532, -1155696833, -1133745159, -1127645614, 974110349, 1013685660, 1006679244, 980727254, -1134634529, 1016890393, -1125401345, -1128543555, 1007676136, 1017650516, -1140554454, 957704803, -1135604740, 1010826378, -1137643533, 997144707, 991284291, 981763274, -1125898859, 1018101002, 1006164622, -1139961135, -1133570471, -1147803960, -1126162355, 1007913093, -1139675897, 1019897070, 958492335, -1144690474, 1022627652, 1015784505, -1128405696, -1135929253, -1131656239, -1139220785, 1015653263, 1008975195, 1008448253, -1126025346, 1023586159, -1136160066, -1180943543, 1015505507, 993887201, 1013528403, 1004896482, -1134529229, -1140823182, 1011892316, -1129609859, -1127872998, -1134295862, -1143698369, -1143597426, -1168290508, -1147322894, -1133584431, 1016743583, -1156893517, -1145315995, -1153280510, 1007677020, -1195953983, -1133478217, -1132012881, 1007938389, -1157714982, -1147249465, -1131320588, -1146738432, -1138076707, 1013255849, -1161549221, -1152499226, 1010799997, 1022195497, 987082057, -1166234012, -1123875038, 1011797657, -1150850730, -1150715421, 1001696561, 1007316109, -1129326368, 991292135, -1134134379, -1150743305, -1148532474, -1157269433, 1010430206, -1133908445, -1131449298, 1014044604, 1006854821, -1132414873, 1025764085, -1148174265, 1015604198, 1017797798, -1128854313, 1014990573, -1135915103, 1012392263, 1006446558, -1127421607, -1139304262, -1146389686, -1155979138, -1137384629, -1136996718, 1000606827, 1011468808, 1016311038, -1145859898, -1137835146, -1133888541, 986291034, 1009719196, -1145493928, -1155819485, 1015739902, -1143334114, -1145316944, 984112221, 1011762976, 1021150083, 1017407791, 1016051909, -1162705789, 1017889018, 980781254, 1018191643, -1134817841, -1129014602, 1023363352, -1129686339, 1006351908, 1018531146, 1024812500, 956752625, -1144972952, 1014768596, -1138997762, -1129277311, 1010046532, 979995024, -1140034097, 1018088665, -1130194603, -1189020187, 1021541763, -1149224185, 1014424898, 1009343507, 1009131077, 1000519000, -1128112243, -1158462833, -1128186436, -1161811787, 1009778360, 1025018494, -1161730536, -1141494337, -1131020254, 1007491569, 1015361976, -1139378204, 1013065304, 1015254148, 1003424802, -1123623879, -1141321051, 1011543463, 1004250879, 989333530, 998831236, 1006862323, 1007023370, 1020439130, 1017197730, -1145136957, 999563971, 981654390, -1164061633, -1138541542, 1008423997, 1008583001, 1002165569, 994025015, 993168134, -1171179424, -1155249965, 1010540303, 1023078844, -1136931578, 1009328323, 1009557070, -1146857650, 1012755859, -1143812353, -1137073752, 1017288752, -1160279637, 1004996878, 1008412894, 998876110, -1138590415, -1157832660, 1018469493, -1135752429, 991532152, -1123388756, 1010299440, 1013871667, 990282386, -1129039315, -1132170252, 998550374, -1153299990, 993240837, -1127106518, -1133568855, 1015022695, -1128768384, -1154141781, -1141027731, 1016403545, 1015145522, -1151572479, -1137411061, -1133546806, -1164715856, -1127412042, -1136582992, -1147670113, -1144524399, 1009479045, 1009393227, -1179191053, 1023945640, 973702244, -1125216942, -1132208883, 1011028867, -1164561797, -1133243788, 1024479562, 1012642368, -1142406788, -1138650117, 1013744858, -1151066176, 1013838661, -1146858075, -1127948172, -1148535719, 1025540030, -1139777512, -1144137031, -1134945539, 1000542222, -1131663117, -1128492632, -1136882889, 1022761579, -1166987654, -1136736386, -1149589111, -1135506619, 1007100281, 988183607, -1139558973, 982007838, -1154048566, 1010075062, -1130202624, 995347780, 1012927123, -1157620196, -1126953905, 1017882489, 1011206886, 1004797918, 1011756879, -1140578980, -1150113522, -1121686254, 1006672156, 998030876, 1018331919, -1132651640, -1147494275, -1160023460, -1149475378, -1125799859, 985593925, 1016687275, -1127184325, -1165897906, -1130819870, -1138098620, -1136851279, -1136833256, 1008260788, -1126120148, 1019282097, 1018520130, -1126887421, 997387339, 1006934905, -1130297142, 1010941428, 1011882499, -1128346581, 1017154828, 1027328996, -1123764058, -1138588766, -1154102811, -1157153621, 1025135237, -1147018560, -1132242364, -1140575639, -1148910421, -1130213407, 992422894, -1122906161, -1134219498, -1131266944, 1010991890, -1142896086, 1004100556, -1146434839, -1128104525, -1123278176, 1011498546, 1008677675, 1017812625, -1131671685, -1140451048, 1007146883, 1020623736, -1142350474, -1136896744, 998436755, 1018119716, -1131804422, -1130434435, -1142058359, -1170381563, -1136072812, -1131431032, 1013276233, -1144299134, -1124441791, 998836444, 1014555184, 1009036668, -1132258091, 995388834, 981954527, -1132428368, 1002520405, -1135364016, 1010815818, 1006966965, -1122422523, 1009243458, -1131289802, 1008849166, -1134736272, -1141324377, 1016288288, -1139544998, 1010132536, -1131401958, 1009833578, 990159787, 999168811, -1137522298, 1017748925, 1007747658, -1154528655, 1023819141, -1131677028, 1011564519, -1165173574, -1138177972, 1011110310, -1140339605, -1137676754, 989852771, -1128485217, -1154107898, -1164845445, -1135613674, 997669176, -1146947944, -1130763395, -1181108112, 993475695, -1148641373, 1019898738, -1128417658, 1010907345, 1018591175, 998477917, -1132281113, 1020548546, -1144802268, 1012595030, 973763839, -1122121425, -1142776107, 1027789544, -1124061195, -1139383645, -1146132976, -1137690506, -1123590057, -1134347523, 1009172154, -1131985526, 1011153596, 1018351241, -1126895762, -1152583609, 1012499443, 1009006798, 983340765, -1134742910, 1014245639, 1022875394, -1126534099, -1147380051, -1123015737, -1139534822, -1123552213, -1112962449, 1004035051, 982877368, 1020379503, -1140693033, -1138376485, -1122264032, -1139437709, 997143412, 1022123055, 1016461251, -1123668634, 1028670909, -1134054915, -1120828061, -1135854307, -1140491592, -1128234142, 993535724, -1128516947, -1125328757, 1007604390, -1128938393, -1127597718, -1135927460, 1019795143, -1146361488, 1020475043, 1002821681, 1016674804, -1130187701, -1151206996, 1016326426, 993906815, -1118655172, -1145487592, -1160028171, -1140236172, -1140107173, -1140225554, 1017967430, 1018284380, 1007296890, 998412663, -1136638095, -1136087267, 1024610366, -1151241592, 1023061540, -1177619545, 1011993337, 1022930040, -1148540323, 986264413, 1023970941, 999658115, 1003571964, -1165971547, -1132660009, 1023505485, -1136838839, -1132189514, 1017713015, -1128258293, -1136865729, -1127397493, 1018228040, -1119555485, -1141768704, 1011581632, -1126928566, 995069129, 1014840621, 1017265158, 994275774, 1007092120, -1136970457, 1007213986, -1156254017, 995119673, 1009968593, 1001989125, -1123940018, 1012222640, -1155668900, -1140702650, 1010109813, -1133097024, -1135938427, -1130926755, 1018306631, -1135803680, -1135300361, 1008380776, -1137098993, 998011282, -1132328162, -1125385600, -1135196773, -1128622824, 1004770048, 1005805731, -1143921511, -1123070968, 1000300328, 998101655, 1021812190, -1136530943, -1121623726, -1136584416, -1133928096, -1171099553, -1142132633, 981909615, 1010971640, 1034453275, -1127436777, -1129168133, 1010068693, 1019520713, 973546493, -1145866181, -1136853851, 1002818376, -1130479714, 995925042, 1009753609, 1009044469, 1016747468, 1005628882, -1139618580, -1127484740, 1016826445, -1123580202, 1008066238, 1002685042, 1011588068, -1145794935, 1011096695, 1006118365, -1121188321, 1009778142, -1129953396, -1134247901, 1009021525, 1014019020, 1010557973, -1134992159, -1131653408, 1011328235, -1129795203, -1128869932, 1007092098, -1132067856, 1026617731, 1002412897, -1122817903, -1126021417, 1024598068, -1136860019, 1015264323, 1007580299, 1016293389, 1029472692, -1131148264, -1126758739, -1129130846, -1124703635, -1138409243, 1017315177, 1011779681, 1016159591, 996370694, -1127845242, -1132732570, 1007789106, -1124075789, -1141535577, -1130529366, -1131516750, 1012196010, 987323094, 1006890597, -1150700221, -1129164553, 993610083, 1014957561, -1127009258, 1002937710, -1129047263, 982527702, 1001171743, -1125435722, -1115595665, 1023115460, -1144207069, 1011287821, -1133792616, -1134149343, -1120746083, -1115575530, -1132194177, 1003665109, 1012431096, 1017540534, -1132834089, -1145560905, -1173357526, 1020924849, -1124469181, 991698039, 1009909427, -1125102856, -1120878980, -1147831655, -1137579210, -1141415452, 1015797869, 1008365030, 1010689284, -1122671211, -1129580788, -1136261322, 1016180824, -1133225666, 1026606925, -1142872791, 1009021469, -1125478049, 1004219891, -1141103820, -1146783810, -1175741405, -1129128400, -1134870768, 1024368952, -1136316424, 1015471949, 1013702592, 1009323164, -1148437243, -1138438825, 974653180, -1123503447, 1016226746, -1142844336, -1136782986, 1020985187, 995749077, -1144788827, 1015984085, -1140782880, 1013510775, 1010643817, -1143732599, -1162623657, 992057296, -1127408414, 1017122242, 1001612066, 1024070187, -1129995474, 1007517375, -1145797171, 1015328143, 1025932698, -1135731725, -1140075241, -1134819621, 1014587966, 999167625, -1135141545, 1000755648, 1007190395, 1017940390, 1010512922, -1163335305, 1017234161, -1139666080, -1123625128, 1009843249, -1146523830, 1011704200, -1142698934, -1144035945, 1004099144, 1001547162, 1027720244, -1136624939, -1141789742, -1133351848, 1000378883, 1016030137, -1162831974, 1017410961, -1125799055, -1135027716, -1128985424, 1006190755, -1129930467, -1137276940, -1138398546, 1008194269, -1131413800, -1123161530, 1014578398, -1155544137, 1013993745, -1163087049, -1136965815, 1013775002, 1010927695, 1013001707, 1018252766, -1151906152, 980495705, -1139563585, 978705483, 1010049122, 1011725259, -1126943120, -1137242909, 1010872307, -1147906015, 1014160595, -1139175842, -1179193890, 1015832050, -1129382580, 977688877, -1130560874, -1152940400, 986572082, -1125947395, 1018258122, -1145897649, -1143314310, -1134629890, 973246863, -1148963470, 1006340438, -1139862035, -1140692272, -1130455189, -1130135825, -1131507420, 1005950653, -1158561245, -1128419445, -1122791774, -1194556470, 996207512, 982077097, 1005041489, 1007754166, -1129970202, 1014569887, 1019676939, -1139900151, 1009061556, -1130102195, -1158083981, -1155096590, 1009040378, 1017299124, 1020009877, 1018132429, -1199197535, 995654953, -1136067822, -1140172777, -1141283254, 1020058590, -1130473247, 1019498997, 1013247196, 1006672307, 1017442047, 1009143039, 1022019522, 1007146448, -1134459350, -1141126548, 1015324294, 1006918964, 1010928271, 987464289, 1004893399, -1128722876, 1016532548, -1128980261, -1156504643, -1164599681, 1018352139, 1014293593, -1125935934, 999336143, 988614307, 1001139814, -1127543384, -1145334012, -1123061596, 1015324906, -1140450156, 1020499331, -1126194211, 998697043, -1136281231, 1012835678, 1001180937, 960534023, 990278116, -1138105623, 1013729229, 1014088927, 1010333839, -1130965657, -1140455232, -1127533261, -1139096362, 1001247872, 967963016, -1143423034, -1136964724, -1128010115, -1135283510, 996005124, -1148454278, -1138154417, -1124682079, -1123760984, -1143028915, 996327249, 1018144696, 1007778420, -1132643416, -1145208157, 1002558524, -1130357341, 1006972049, 981660777, -1143122947, 1002666920, -1146013141, -1135392298, 985025780, -1140060783, -1142599778, -1125016914, -1134492632, -1123845723, 998857175, -1129154908, 1001905290, 1001315118, 1017683762, -1143560943, -1156809403, -1147538851, -1140479837, -1134437525, -1131428832, -1128580320, -1129219322, 995935125, 1001644650, -1128872554, 1003004618, -1143117408, 993431611, -1140506633, 993604848, 999347655, 994528407, 1000309211, -1131383163, -1141270156, -1162951450, -1157075266, -1132686788, 1024056833, 1006741866, -1131363120, 1026110616, 1023734372, 1000850335, -1129961892, -1153004900, 996099784, -1126895104, -1137356360, 989434181, -1147038092, 1001687563, -1144627667, -1151081109, 990211611, -1126131201, -1129320232, 977777397, 1001679350, 998911009, -1123079933, -1125824987, -1132980509, -1123372084, 1009408603, -1144519257, -1138040018, -1132552595, -1131870726, -1127116250, 1000551053, 1011306570, 970938419, 1013027606, -1176462751, -1129800730, -1138829070, -1134369550, 1016547279, 1029188226, -1140018559, 1023429342, -1131862389, 987420281, -1137305884, -1132455744, -1140314347, -1140235198, -1155571720, -1139285958, 1015082861, -1133877245, 993280246, -1138528108, -1149724471, -1138889682, -1147768376, 996728902, 1006913957, -1145656968, 1011625064, -1144876002, 1000075337, 989252597, -1150802334, 1006753487, -1150976911, 1005385428, -1140529416, 1025857594, -1140478459, -1131781589, 1004530498, 1008013766, 1009666209, 1006745775, -1130052205, -1149026225, -1116782236, 1022803900, 1007318400, 1015340744, 1008994757, 1018370973, 1000942099, 992631159, 1012248235, -1160236951, -1140999281, -1134477796, 969773599, 1012176782, 1014141394, -1134263362, 1023218514, 966386679, 1011470485, 1009515713, 983985477, -1164314565, -1129774980, 992408061, 1007254755, 1021686751, -1157605420, -1202781021, 1003359356, 992721256, -1159853201, 1008126382, 1007126209, 1002590381, 984104669, 992710895, 1001779661, -1135082818, 1020486366, -1117673078, 1010422133, -1126714623, -1133830699, 995611526, -1182075109, 965792988, -1167284712, -1144946586, 1004850003, 997783286, -1118354572, -1126204862, -1130420970, 989342000, 979327511, -1147199349, 998530477, 1010973764, -1130251847, -1133248011, 1007434247, -1152010920, 1014783943, -1134365717, -1135378157, -1146232690, 1009679234, -1151171382, 1006043926, 1023938213, 1023055398, -1139232547, 1008134052, 994437810, -1153715486, 1003215769, -1133011341, 994139207, -1150599566, -1179898499, 1002236469, -1140370617, 999116073, -1162301567, -1159625650, 1000532037, -1124947966, 1018244037, -1128506911, -1128208667, -1166681113, -1125669857, 1015333409, -1129334132, 1016737894, 1023827115, 1009564187, -1141041308, -1132449832, -1145671957, 1004630078, 1011928711, -1124325485, -1160763932, -1144987875, 1007489040, 1000046566, 993914626, 1002832932, -1135500671, -1130784464, -1149945977, -1115126610, 1005976055, 989313804, -1141915532, 970491923, 984613872, -1130973344, 1009784104, -1126672298, -1137741256, 1006235407, 1001000868, 1015465904, 977526641, -1136686634, 1007058995, -1147570043, 1011668899, -1129299531, 1013900942, 1000057010, 1008151854, -1138329990, -1148008383, -1141905079, -1140351101, -1130958469, 991746361, -1144023304, -1180693159, -1131700893, 1025624089, 931787004, -1136509435, -1134989474, 1000296855, -1164793511, -1140658928, 1010554142, 1016849000, -1138879241, -1123622575, -1133643440, 1010929885, -1129888218, 977953557, -1130523388, 1006563371, 991453823, -1145743362, -1133324790, 1001769492, -1127167033, -1127279921, -1123963459, 997482835, -1167504426, 1006737181, -1150296440, -1164524418, -1144773937, 1008758671, -1151301371, -1132197590, -1138286687, -1139018248, -1134961480, 996140205, 1015389772, -1177391043, 971890621, -1148996002, 993121875, 1006135035, -1135253428, -1120672722, 1011953038, 995769809, -1129586796, -1139342621, 1020321980, -1138568060, 1012470069, 996495735, 1016935761, 1011655034, -1132005320, -1133190963, -1126988357, -1148769902, 1015325638, -1160565083, 1019396044, -1139633257, -1145976385, 1018107225, -1147260892, -1130016211, -1156287350, -1134524719, 1013427464, -1140276379, 1007130897, 1015078179, -1138905197, 999995075, -1132435696, -1133848626, 983190886, -1133036770, -1123063426, 1013326699, -1173117981, -1152076551, -1141919040, -1123898453, -1145333684, 1012184480, -1125471104, -1147452193, -1147879527, -1132920843, 994523861, 1012775316, -1120253973, 984725824, 993353620, -1143053203, 1021450462, 982773341, 972149630, 1021885747, 1013351419, -1125737663, -1140530661, -1135372613, -1135175738, 1017366680, -1125582498, 1011059864, 1005896248, 1001869798, 1009501335, -1127710457, 1000079732, 1013228923, -1163654512, 953660499, -1124849742, -1143577131, -1173671770, -1138010908, 1017056969, -1137953298, 1016580256, -1132435474, -1131778655, 968657760, 1000750736, 1027160456, 1015274284, -1141021371, -1161857144, 999654942, -1143541149, -1123884795, 1013008522, -1125485507, -1137119747, 982038034, -1164278125, -1144423751, -1129804865, 1002924731, -1139398487, 1023470078, -1128862912, 998337405, -1159741114, -1151937056, -1154032607, -1136246381, 984246911, -1148227257, -1128470412, -1136757609, -1136934108, 1004908434, 999092101, 973554459, 1027262205, -1138298789, -1129051252, 1022865479, 1005829901, 1015566975, -1141913777, 1009167232, -1146958131, 971193201, -1148465585, -1131821510, -1145819994, -1144163668, 1025742132, 1007807086, -1136446591, 974061806, 1016206249, 999757697, -1196841062, -1133717486, 1015942646, -1148904881, 1003028652, 1008049129, -1136572999, -1151508085, 1007927841, 1023745277, 1005400172, 952267354, -1134712702, 1006278216, 1017959361, -1137102220, -1133089286, -1133304647, 1007703130, -1141840142, -1143972926, -1194184996, 994237429, 1027489557, -1128959171, -1136412948, -1128666262, 1008525983, -1132748511, 1012535064, -1135133171, -1139303914, -1137760395, 1006913655, -1132306087, 1005239427, -1130725902, -1126818415, 1006694703, 1015728991, -1122996546, -1178674484, -1156529240, 1016356375, 1011544261, -1136208614, -1129895044, -1137951776, 1012464632, -1154202502, 992424324, -1148665223, -1150263778, -1133090538, -1134368437, -1126307445, 1009458544, 995203527, 992263979, -1138162752, 992253730, -1139151130, -1146759359, -1148946085, 1012633371, -1142173323, 1014404172, -1128028339, 1009578480, -1137046154, -1128286457, 979768471, 1011667094, 993803422, -1131068788, -1144052977, 1001415555, -1128045128, -1130077211, 999165641, -1153437636, -1135954558, 1011006946, -1132135547, -1140674876, -1136424031, -1134790879, 1011661742, -1139521379, 1003998330, -1133861395, -1147226303, 1017798585, 1015435379, -1143557644, 1015498793, -1142888901, -1140323191, -1133920645, -1146832248, -1156283899, 992066161, -1128995574, 999107349, -1149164196, 1008755689, 1013289479, -1130431813, 1017457000, -1134440621, 992911797, 1015392056, -1152173737, -1131559505, -1140497697, -1133543242, -1143955512, -1157755602, 1025481808, 995292458, -1131452257, -1130136376, -1144335007, 1023281602, 1004323726, 1007094719, -1132732694, -1132149546, -1133322288, -1152807504, 1013533136, -1150397159, -1186751644, -1140785207, 1004041660, -1142231647, -1137272134, 1006200971, 1020557500, -1182437454, -1131668292, 1026122985, -1148149649, -1137694865, 1018959115, 1011532653, 1000501680, -1147081984, -1123308406, -1130137647, 999037938, 993358721, 1007252639, -1131731645, 1020143592, 994453716, -1126308344, -1135985586, 1000678462, 1017297818, -1160945219, -1154303348, 1013941192, 1022704337, 1014489335, -1123051950, 999200794, -1123004916, 1013144596, 1003106337, -1156534089, -1147800636, -1136545378, 1019726569, 1001305520, 1015325642, 999464359, 1006814151, -1144019500, 1025004956, 996759506, -1142354679, -1131293192, 994455532, -1137228969, -1157942563, 991509476, -1133124393, -1148045915, -1146621086, 1004044160, -1129311309, 1002280976, 997997604, -1136049299, -1147767399, -1115481590, -1145943044, -1140484935, -1132023350, 998970735, 989156870, 1001012083, 998041025, 1022887597, 992938453, -1128100887, -1204746796, -1123177877, -1151232875, -1137276546, 1013044415, 1010543837, 1015037001, 1024379853, -1146639819, -1158986464, 1007991960, 1005185837, -1133833064, -1127599339, -1148092407, 1012180905, -1174737121, 1024531456, -1138535257, 1020246537, 1015161764, 1007847329, -1133184126, 981973191, -1143613610, -1147144379, 1025993926, 1007454969, -1136654256, -1151051239, -1180635213, -1123352226, 1028619734, -1131898576, 1016267802, -1137464020, 1001900267, 976013568, 1014025010, 999804067, 1007594837, -1123846112, -1142601103, 1018940090, 1016670290, 1023136168, -1160026653, 1013959183, 1026101636, -1130536473, 1000649152, -1125876957, 1020648113, -1157788703, 1005360005, 1007507362, -1120962417, -1148297701, 1007089724, -1131936670, 992509871, -1147938430, 999870802, 1012849216, 1000963715, 1003745960, -1138640223, 990615949, 976834567, -1142819102, 1008120892, 1025240641, 1026939219, -1150280094, -1121918365, -1141514261, -1123038707, -1131477512, 1021081774, -1158212669, -1138553279, 1016265690, -1128494171, -1145948174, -1136259901, 1007585532, -1145283109, -1130879911, 1012412110, 1002554713, 1006947530, 1020308745, -1134705549, 989902709, -1132207537, 1015111508, -1151983726, -1146976882, 1012623688, 1021566632, 1022287310, 1010618695, -1134985969, 1017270002, -1136829255, -1132589389, -1123134527, -1129040610, -1138490166, -1132410701, -1147937935, 1023880401, -1139061816, -1144122660, -1137048315, 1030653930, 1008494443, 1028212441, 1002242780, -1136546946, -1136680054, -1166088717, 1009421937, -1141004898, -1133138546, 1007373739, -1128839770, 982029218, 1006108168, 999105371, -1132940459, 1015823922, -1122464403, -1129972906, 1009059804, 996624678, -1144821504, 987841268, 1029366461, 1001051145, 997049441, -1130728308, 1018384960, 1026722554, -1123170039, -1152734617, 1010816820, -1148017577, -1138810689, 1016138686, 1003948286, -1138696567, -1147805078, -1127757755, -1153681757, -1146260392, -1137126823, 998874839, -1144123677, -1157072205, -1126889490, -1155249484, 1013852958, -1139616711, -1148201859, 988640166, -1145393757, 1010762585, -1126391497, -1137777928, -1131235543, -1117550777, 1000269199, 1018884560, -1142738262, -1155834725, 1013244677, -1137682498, -1126145148, -1121657163, 999268726, -1129787251, 1010878536, -1126290458, 991596375, -1130981129, 1008457729, -1135427227, 1005595981, 1007572884, 1004973516, -1165935520, -1132200557, 1015852379, 963854422, 1016494786, 1015355795, -1132031491, 999146939, -1127311264, -1148177751, -1116049059, -1133811957, 1011081458, -1154256907, 1010987056, 1007277079, -1124419600, -1140385718, -1132105329, 1007979446, 1006451858, 1010176200, 1024206879, 1012090889, 995249803, 1007250918, -1135629823, 1022410948, -1164706969, 1023514369, 1005785146, 1018371143, -1152354124, -1143097669, -1131278363, 1015892259, -1128783714, -1139318131, 1008904425, 1011412759, -1138224403, 1008036497, -1144168939, -1129119777, 1020172753, -1137309251, 990067546, -1128600036, -1154357766, 993606017, -1150536600, 1004060972, -1142774278, -1128449896, -1129189449, 1019613774, -1153949025, -1163491950, 1019082280, 1010488898, -1154632530, 1020175101, -1149161931, 1002115346, 1021191137, 1006131791, 999606142, 1002154328, 1015574304, 1024056229, 1018522205, -1151264487, -1162572364, -1141041006, -1137593449, -1123806920, 1008088846, 1009476975, 1007288612, 1021236416, -1135269187, -1147026787, -1132816029, -1129915570, -1129750309, 1015200473, 1008452014, 1012055192, 995995182, -1136120977, 1008417079, -1142099616, -1130336950, -1138818111, 1017987196, 992418417, 1019854445, 1003257631, -1124686457, -1134777485, -1141411805, 1006706829, 992520036, -1138142025, 1006764419, -1141096873, -1130766204, 1010559596, -1126920581, -1148450442, 1002524296, 999457036, 1020327685, 1004340722, 1025714320, 1012261447, 1024080251, -1130952583, -1128007788, 1005794663, 1026449019, -1120483984, 980281899, 972251627, -1152975514, 981927155, -1156224249, -1130539945, 991402794, 1017159313, 1019704181, 1016781066, 1020120143, 1025777280, 1015835559, 1015545321, 991735081, -1147518668, 1040446331, -1128898052, -1149296047, 999017108, 1015245347, -1150876130, -1138222149, 1006662955, 1010234509, 1011049049, 1010068373, 1016259991, -1135594289, 1006879940, -1159232048, 1025761058, -1137493961, -1142290399, -1138358862, 1014458579, -1146125788, 1034401183, 1010173915, 1017504478, 1016120843, -1154908758, 1017872755, 1021031576, 1007514287, 1004127619, -1130190722, -1138849553, 1019511589, -1138411491, -1162822204, -1129545099, 1006731721, -1129283244, 1012716234, 1009242976, -1152921969, 1017280302, 975729483, 1008870615, 998791546, -1137830832, -1128956301, 1001583510, 1002757001, -1147896011, 1018567331, 1006334749, 987221723, 1018269322, -1133052057, -1152316745, 1002694374, -1138131506, 1018756114, -1137458542, -1181859250, -1137017433, -1146203300, -1136246505, 1009133691, 1006608942, 1010330657, 1000607549, 999077354, -1146329768, -1148122360, 1017452639, -1139057397, 1012701157, -1128506342, 980803928, -1135415969, 962660861, 1016736679, -1140090361, 986135834, 1013683033, -1127083216, 1003515023, -1150817608, 1011563425, 1016410224, 991962041, 977721004, 1020794138, 1002747804, 1016512816, -1132601188, 998742409, 1018216880, 1002350113, 1007774101, -1132991936, 1001403421, -1127663651, 1016112560, -1147312383, 1015042667, -1131981587, -1138345233, -1127807134, -1133164139, 1012033056, -1117893351, 1032586429, 1017282905, 997036551, 1014771459, 1004742875, 1012543352, -1153383050, 992307018, -1132218606, -1187597382, -1136542187, 996471108, -1133277947, -1133851371, 1009998161, -1123026042, -1125676627, -1145601297, 1012085294, -1149008151, 1015977854, -1131002280, 1023494281, -1139510257, 1012698511, 978023250, -1165671917, -1123520263, -1129928123, -1142174577, 1007672929, 1016538392, 1000292927, 999295863, -1132759918, 983966932, 1024041010, 1001801698, 1000168669, -1159781902, 1022400564, -1138505664, 999680529, -1140714360, 1015317757, -1121015126, 996894582, 1007659439, -1133286232, 1017021508, 995680087, -1121055115, -1135738708, 1016310177, -1138094392, -1154543352, -1142529731, 1020875340, -1155559039, -1131296903, 931753379, -1152744759, -1128279472, 1005202456, 1008597304, -1164892943, -1121085916, 982763609, 1015317012, -1149970145, -1139792903, 1016301677, 997961014, -1143071609, 1019677534, -1196182529, -1152371385, -1134255675, -1142976381, 990197606, 1013878295, -1132805356, 1010690427, 995470666, 993867583, 1015108734, -1127025218, 1030188237, -1160673269, 1005066190, 1016597759, -1129663870, 1017368668, -1136033053, -1167203746, 961455156, -1139330369, -1127072548, 1010251605, 983166445, -1139921813, 1008742526, -1130474972, -1147894896, 1008260456, -1119799294, 1011210345, -1119466252, 1015118785, -1129018351, 1003837908, 998881930, -1180342364, 1007192162, -1124977225, -1156489963, 1012766514, 1022292489, -1131838554, 1016613713, -1141072274, 1016154771, -1196437626, 1010604318, -1131771539, -1138605390, -1148707757, -1117880562, 1005972062, -1131686371, -1119123218, 996242654, -1130761750, -1138549019, 1019160671, -1144568280, 1011131665, 1018563885, -1128772894, 1007863415, 1004382714, 1023360212, 1020461585, -1138568991, -1134832838, 990001451, 1018686986, -1135196069, 1009596846, 1015216915, -1145165667, 1018186245, 1013215374, -1132009438, -1145732104, -1128253824, -1120409253, -1139172384, -1127885606, 1014644872, -1138284914, -1149194282, 1017951107, -1135296640, -1143237774, 960105603, -1129760035, -1163430558, 1016275603, -1141865643, 1018365725, 1014577568, 990585885, -1160692041, -1137094626, 1012478892, -1133261950, -1133457965, -1143097058, -1140328680, -1142165656, 1003190101, -1142396484, -1157081573, -1155317871, 1023937927, 982350105, -1131272492, 1015535495, -1122089183, 1007043815, 1009048910, -1131773705, -1134132803, 1008827177, 1016729244, 1015415607, -1169670291, 1018983078, -1137619385, -1171000617, -1150894225, -1126245333, -1142416503, -1139997523, -1126186957, 1016264010, 1007669334, 1019871432, 1002458782, 1010735606, 1014170442, 1015584072, 1017767114, 1014851860, 1015209400, 997438399, -1135645631, 1019344417, 1007875990, -1138151476, -1137703983, 1010475275, 977738665, 1005326545, -1135037358, 982701098, 1012201620, 992370521, -1139590424, -1146727077, 1007430385, -1125771504, -1139739170, 1014496290, -1144878449, 989878725, -1134608842, -1140346317, -1130214386, -1138024574, 1024363438, 1008789063, 1011633747, 1018876294, 1018265912, 1001432903, 1018331636, -1147072432, -1136643292, -1128078971, -1163360787, -1126136444, -1148446842, 1009356769, -1129249373, -1127298097, -1133405434, 986031007, 1001157885, 1008380392, 1010969818, -1132539662, 990280731, -1115508395, 990614119, -1138220114, -1140221245, 1003871204, -1134124004, 926837235, 1016855878, 1013414279, 1003572586, 1012067541, 1016685497, 1008382818, 984832394, 991293599, 1019360492, -1134592235, 1008585309, -1133169563, -1120929309, -1121260970, -1128897444, 1013177766, -1140226165, -1141040361, -1135159356, 1004438753, -1131330174, 1000848759, -1169579340, -1149592173, -1146433656, 1010116179, -1165748619, -1144961544, -1133235009, 1024644710, 1008043880, -1121061322, 943352557, -1142627083, 1012989041, -1148416446, -1126373494, 1018318549, 999151628, -1181529259, 1004299372, 1007707983, -1132671621, 1000428797, 1000683238, 1013501648, -1168055750, 1021581891, -1130205652, 999148743, -1139711157, 1024226524, -1137718454, -1134319079, 982150558, 1010081758, -1136636155, 1010137610, -1136952902, 1010594106, -1154377045, 1011336567, 985341734, 1013433244, -1145735801, 980318135, 1017994686, -1158258717, -1129037368, 1010733337, 1018116288, 1019435634, -1164672871, 1017210535, -1143951250, -1151294507, -1124319931, -1131963248, -1148311111, -1132603808, 1018119259, 1028305200, -1150328904, 1014008567, 1008785093, 1024125280, -1126994940, 1019971665, 991729190, 1023481369, -1120078204, 1025781323, 1011962508, 1018186858, 1019515874, -1143622274, 999703900, -1116557796, -1147085353, -1125899152, 1020211670, -1126739539, 1022335990, 1020355355, -1146200794, 1007714535, -1147999707, -1136995095, 1004435055, 989510542, 1011495626, -1132050809, -1151517604, 1001022591, -1134376020, -1126576205, -1129048885, -1139861068, 1015317032, 1007819169, 1023847502, 1024249846, -1131414895, -1145103673, 1015215568, 1006898324, 994078602, 996771837, 1000344929, 1008302919, 1015206044, 1002649430, -1131759188, -1124770983, 995048977, 1027006734, 1028895992, 1017394085, -1137631669, 999702397, 1003121506, -1138073803, -1153187808, -1159134550, -1137190196, 973021090, -1134733477, 1023787493, 1012198286, 983600467, -1132441864, 1025511896, 1014492281, 1009786317, 999716436, -1164844175, 1008324454, 1019873520, -1138787135, 1017532868, -1143135378, -1141705228, 977225560, 987427925, -1133836902, -1148828499, -1139702795, 1008611554, 1011236406, -1163957022, 1024451164, 994495449, -1172120520, 1019650347, -1139363716, 1006073569, 1009526367, -1128500337, -1130746069, -1134305151, 1005701106, -1128762207, 1023480071, -1142907739, -1134269860, 1019203207, 989666708, 1016161212, -1130134053, 956159910, 1024166571, -1139976618, -1127847069, 1006892615, 1008365438, -1123330622, 1009888360, 1038962547, 1019729132, 993160953, -1158025828, 1012905867, -1122275660, 1013282953, 1018218667, 1013381259, -1142118925, 1014723812, -1137333609, -1129677024, -1133910975, -1137148452, 1031299625, 997074351, 1025469762, -1137156661, 1003815546, 996823713, 1019999974, 1014021714, -1139675297, 988195827, 979584208, 1023523867, -1130086016, 1013582485, 1014818836, 1013961740, 1021097006, 1016745710, -1132251937, -1124487339, 1010081263, -1130018099, -1160169193, 1023707871, -1140610525, -1132278322, 1006803898, -1152286105, -1130897071, 1011618784, -1129036609, 1011078894, -1123468876, 1023316204, 1015096414, 1007005696, -1122569957, -1133494139, -1122878692, 1010660338, -1141593268, 1024911656, 1003505724, -1123529383, 1010066100, -1119376701, -1130724911, -1161507508, -1145705251, -1150716043, -1123955133, -1127725022, 1011097350, -1124105564, 982041914, 987161861, 1023327143, -1162869651, 1008849406, 973910260, 1012493200, 978738715, 976824915, 998871599, 1010496225, -1123920531, 1015424597, 1018135638, -1126512112, -1136636449, 1019531449, 1025180938, 1016039469, 972136342, 1016534037, 1018481897, -1123004026, 1024748268, 997606733, -1193428140, 1018187278, 1015766950, -1145468867, 1010559324, 1017935201, -1125076418, -1131832543, -1143786870, -1124826516, -1144284379, -1133320362, 1008767717, -1136406310, -1130454062, 1032367675, 1007531384, 981360780, -1128504442, -1136479152, 1022587496, -1129220070, 1024783091, -1129066095, 1019077923, -1115380803, -1125007604, -1140394093, 1028678622, -1133297529, -1126542278, -1150222563, -1134062710, -1124952810, 1023070404, -1121371835, -1180676811, -1139839731, 984892982, -1123127274, -1128576892, 1022760247, -1127820519, 1027285128, 1014009592, 985048031, 1003607973, 1016801215, 1023091503, 1020789639, -1135966781, 1007171420, -1130439640, 1013998891, 1013246912, -1129898133, 994648600, -1120792236, 1018034455, 1016107754, 1011143563, 1025688205, -1137480643, 1018799247, -1149857903, -1155213130, -1126638849, 1023468212, -1129767896, 989106034, -1147172827, 999417304, -1137022637, -1137249835, 1011180665, 1003899008, 1006812117, 1008289637, 1006396108, 1019465825, -1152557497, -1123898116, -1142189679, -1118639698, 1020558875, 1016008624, -1136164271, -1140391211, -1157336790, -1121782947, 1015786902, -1159375747, -1133104417, -1130650610, 1020028709, 1008216164, 1018093663, -1130900872, -1138620632, -1133467346, -1152308391, 1008711042, -1125808238, 1023774431, -1136150760, 1012048463, -1136462574, -1131990547, -1148039124, 1005923966, 1016849840, -1123971224, -1124089502, 1014328875, -1139473006, -1143353939, 1006745449, -1126337102, -1148572022, 1013777468, -1122918484, 986211001, -1122671324, -1163955168, -1138090560, -1134785925, 1002946176, -1146553028, -1177263939, 1025130915, -1198593904, 999179156, -1134449351, -1138353769, -1129310368, -1123742210, -1131028288, 1024810421, -1134319091, 1012777894, -1128768150, 1018947228, 1005639529, -1127684603, -1129161164, 1026449230, 1006285140, 1016337960, -1141538747, -1116505685, -1128535243, -1122212897, -1121811654, -1138495056, -1131062077, 1007394051, 983898167, 1016469143, 1007696159, 991663635, 1016955984, 1006074752, 996625912, -1122609733, -1135097611, 1011831280, -1126535352, 1019731090, 1017505118, -1118739752, 1020738597, -1135077333, -1123292864, -1139025018, -1137970978, 1012714344, 1000331829, -1119321762, -1131349056, 992464368, -1139816008, -1125050109, -1138624855, 1009340318, 993445750, -1130513761, 982385250, 1024231874, -1160030121, 999718455, 1017798850, 1015699087, 1015316897, -1140845725, 1019895590, -1160749180, -1162857038, 1007644914, 984709094, 998908774, -1145477391, 991134143, -1149290041, 995758563, -1148485819, -1148790314, -1129776998, -1152817544, -1158057201, -1163361024, 968834232, 991917048, -1148990981, 1009349527, -1161438289, 998099774, -1153091025, -1136539622, 977313085, -1153981104, 992663080, -1148621415, -1146774154, -1122964982, -1138048613, 976166743, -1179508036, 977385278, -1139003369, 1006697552, -1155619201, -1175266664, -1162420884, -1141455473, -1147811775, -1156083262, 986756405, 991280290, 1002783551, 1000312600, 993431287, 1003987421, 991637714, 993469056, -1160750266, 1003321876, -1146367632, 991332374, -1156558387, -1157327059, -1129849924, 991517821, 993254312, 998691279, -1153710073, 988585814, -1165767800, 961943378, 1001115006, -1149223360, -1196968354, -1165862011, 1004779158, -1143761353, -1141332418, 1007044784, 995077674, 1003254735, -1141743379, -1144151827, -1159421542, -1147863190, 1001752500, -1154500425, 1003367525, 982072106, -1137317183, -1154310996, 1001851526, -1133084140, 992905775, 990473010, -1144694898, 978965489, -1145344319, -1151582328, 1006110927, 982093822, -1143549660, 999950113, -1154468943, -1162142258, 991470388, 995234108, -1155591649, -1165148779, 939688589, 991751272, -1161352156, -1158843312, 961541335, -1145333489, 1002255804, -1160795842, -1161034939, -1142857617, -1186043276, -1169239608, 991327974, 